float Layer2_bias[24] = {0.0015843089204281569,0.0,0.05869581550359726,0.0,0.09336087852716446,0.07551281899213791,0.10956597328186035,0.0,0.0563838966190815,-0.09433461725711823,-0.10605423897504807,0.03381729498505592,-0.12141741067171097,0.05531486123800278,-0.07147233188152313,0.10330800712108612,0.04414547607302666,0.0,-0.055616457015275955,-0.0712149515748024,0.04848684370517731,0.05352557823061943,-0.09969993680715561,0.09165921062231064};
float Layer3_bias[48] = {-0.018016060814261436,-0.031754229217767715,-0.0009660981013439596,0.04823088273406029,0.0021022551227360964,0.06171102076768875,0.027390507981181145,-0.08824477344751358,-0.03820791095495224,0.042165759950876236,-0.0646776333451271,0.0,0.09251836687326431,0.02874866873025894,-0.01487553957849741,-0.03189922496676445,0.07350108027458191,0.11501611769199371,0.01641310378909111,0.03565523400902748,0.030967703089118004,0.15937384963035583,-0.03597313538193703,-0.03175167366862297,-0.005335466004908085,0.00039101409493014216,0.05093337222933769,0.006284997332841158,0.0,0.11718325316905975,-0.03176436573266983,0.012369951233267784,-0.04645615443587303,-0.038244858384132385,-0.024558037519454956,-0.023674625903367996,-0.1095922589302063,-0.005240784492343664,0.05244545638561249,0.0,-0.03229290992021561,0.08581233024597168,0.003143290989100933,0.037289805710315704,-0.002801207359880209,-0.0846133753657341,-0.04863901436328888,-0.03504471853375435};
float Layer4_bias[24] = {0.03400496765971184,0.06036166474223137,0.11597400158643723,-0.02902810648083687,0.16271467506885529,0.1815645396709442,0.18218830227851868,-0.10335326194763184,0.23844438791275024,0.031882282346487045,-0.043299101293087006,-0.031751371920108795,0.030197642743587494,0.12215981632471085,-0.022780198603868484,-0.07716110348701477,0.12835967540740967,-0.009478933177888393,0.09401532262563705,0.2528308033943176,0.07031592726707458,0.1213000938296318,-0.05031127855181694,0.11314206570386887};
float Layer5_bias[3] = {0.21476486325263977,0.04331435263156891,-0.02785228192806244};
