float Layer2_weights[24][3] ={
{
0.2949492037296295,-0.22409622371196747,-0.4051518738269806
},
{
-0.1787031888961792,-0.001422882080078125,-0.4099661111831665
},
{
0.27644720673561096,-0.3630647361278534,-0.16556133329868317
},
{
-0.06264358758926392,-0.01397848129272461,-0.12305968999862671
},
{
-0.053854621946811676,-0.9779950976371765,0.3747597634792328
},
{
0.057177335023880005,-0.13400180637836456,0.7127590179443359
},
{
-0.759767472743988,-0.9301210641860962,0.26879727840423584
},
{
-0.022769629955291748,-0.24829933047294617,-0.23021259903907776
},
{
0.42787379026412964,-0.5298269391059875,0.009844636544585228
},
{
-0.04840858653187752,0.275005966424942,0.8566688895225525
},
{
0.005285540595650673,0.2780665457248688,1.1901549100875854
},
{
0.20947007834911346,-0.9217012524604797,0.2848600149154663
},
{
0.26450738310813904,0.014771061018109322,0.6678748726844788
},
{
0.2889067530632019,-0.012191635556519032,-0.8309279680252075
},
{
0.07840809971094131,0.013525289483368397,1.1785962581634521
},
{
0.4862232208251953,-0.606855571269989,-0.3490273654460907
},
{
0.010572277940809727,0.4629608988761902,-1.3474650382995605
},
{
-0.35539886355400085,0.0093994140625,-0.4410080909729004
},
{
-0.041972819715738297,0.048629723489284515,0.09751907736063004
},
{
-0.04182514548301697,0.09012589603662491,1.0420888662338257
},
{
0.3756648302078247,-0.47816577553749084,-1.049364686012268
},
{
0.41043350100517273,-0.9221022725105286,-0.29637259244918823
},
{
0.23441483080387115,0.07792911678552628,1.2365220785140991
},
{
-0.36854222416877747,0.4558951258659363,-0.5650379061698914
}
};




