float Layer3_weights[48][24] = {
{
-0.20412585139274597,0.2764616012573242,0.2378534972667694,-0.2060893326997757,-0.2477046251296997,0.1626293957233429,0.21481484174728394,-0.07351727783679962,-0.252669095993042,-0.21461831033229828,0.007666484918445349,0.03601039946079254,-0.32532787322998047,-0.09617158770561218,-0.008199140429496765,-0.03708989918231964,-0.2326844483613968,-0.04904010891914368,0.1343441903591156,0.1617603451013565,0.11248999834060669,-0.17673616111278534,-0.15340197086334229,-0.25752609968185425
},
{
-0.2736222743988037,-0.24193710088729858,0.046517372131347656,-0.08379568159580231,0.1802310347557068,-0.16856206953525543,0.23980438709259033,-0.26614323258399963,-0.08910715579986572,-0.146879643201828,-0.26408565044403076,-0.2227724939584732,-0.22846002876758575,0.015844732522964478,-0.1796463131904602,-0.014696300029754639,-0.011267600581049919,-0.06864306330680847,0.1892523169517517,-0.1385948807001114,-0.10053762793540955,0.03842645883560181,-0.09325649589300156,0.09881195425987244
},
{
-0.20074462890625,0.041277289390563965,0.07498140633106232,-0.1824008971452713,0.5410898923873901,-0.02154417894780636,-0.8086146116256714,0.09397503733634949,0.3874320685863495,-0.17292989790439606,-0.555309534072876,0.4161054491996765,-0.331609308719635,0.4312152862548828,-0.5143424272537231,0.31062769889831543,0.280088871717453,0.2885836362838745,-0.10144495964050293,-0.19961199164390564,-0.21518917381763458,0.17078228294849396,-0.24124981462955475,0.17865602672100067
},
{
0.004354673903435469,0.10522300004959106,-0.24254049360752106,-0.1704266369342804,-0.3145231008529663,-0.11492800712585449,-0.08309777081012726,-0.04582086205482483,-0.14633481204509735,0.11094333976507187,-0.06837763637304306,0.0026326444931328297,0.21255767345428467,-0.009884458966553211,0.27818402647972107,0.29923754930496216,-0.2374802529811859,0.10733276605606079,-0.10386265814304352,0.30124956369400024,-0.42126670479774475,0.0699491798877716,-0.0309324748814106,-0.22122716903686523
},
{
-0.3049083650112152,-0.03267428278923035,-0.0073433429934084415,0.20151814818382263,-0.7138967514038086,0.21222516894340515,0.3495318591594696,0.1681249737739563,-0.40676382184028625,0.196079820394516,0.281982958316803,-0.5183058977127075,0.32353925704956055,0.17010140419006348,0.5264299511909485,-0.34221407771110535,-0.2838647663593292,-0.16519734263420105,0.22049687802791595,0.4458710551261902,0.3491634130477905,-0.7760997414588928,0.46169424057006836,-0.2377045452594757
},
{
-0.06976059824228287,-0.15781642496585846,0.17551226913928986,-0.03298911452293396,0.769416332244873,-0.16342048346996307,-0.7123516798019409,0.08862248063087463,-0.1882707178592682,-0.48886704444885254,-0.4056296646595001,0.5594708323478699,-0.07518117874860764,0.23533564805984497,-0.3386688232421875,0.3795912265777588,0.0782475546002388,0.1861499547958374,-0.2608966827392578,0.05670898035168648,-0.7560047507286072,0.044074296951293945,0.1534344106912613,-0.2752057611942291
},
{
0.21970807015895844,-0.28773757815361023,0.17710047960281372,0.060856759548187256,0.057831473648548126,0.2120431661605835,-0.8586960434913635,0.17757636308670044,0.3129408061504364,-0.26564741134643555,-0.5829463601112366,-0.06397905200719833,-0.22112461924552917,0.018874237313866615,-0.17942959070205688,0.39072445034980774,0.0710148811340332,-0.03226277232170105,-0.27757909893989563,-0.19957754015922546,-0.2410251349210739,0.4591406285762787,0.025884423404932022,-0.20815494656562805
},
{
-0.24977771937847137,0.25371885299682617,0.14595139026641846,0.22053492069244385,0.6041582822799683,0.23837189376354218,-0.0158552099019289,0.1467692255973816,0.14435291290283203,0.32126277685165405,0.3187909424304962,0.6956985592842102,0.3882148563861847,-0.3135475218296051,0.3008025288581848,-0.2959290146827698,-0.4747363328933716,0.23116523027420044,0.15368680655956268,0.30602991580963135,-0.05214254930615425,-0.056892380118370056,0.5308024287223816,-0.281453400850296
},
{
-0.23162713646888733,0.21634572744369507,0.2488018125295639,0.2809540033340454,-0.1487441062927246,-0.034655917435884476,0.047062814235687256,0.2445273995399475,-0.15175499022006989,0.2284250408411026,-0.1896604299545288,0.07540994137525558,0.14724263548851013,-0.2071322202682495,0.008204854093492031,0.152988463640213,-0.09544865041971207,0.22702646255493164,0.15339910984039307,-0.0463637039065361,-0.22027626633644104,-0.2863888144493103,-0.09122730791568756,-0.19663414359092712
},
{
-0.1021180972456932,-0.23691469430923462,-0.21763242781162262,-0.10170911252498627,-0.6606317162513733,0.2210230529308319,1.0060737133026123,-0.07391385734081268,0.08465691655874252,0.04470979794859886,0.36751216650009155,-0.668913722038269,0.41245439648628235,-0.253546804189682,0.19455453753471375,-0.24367626011371613,-0.4863773286342621,-0.18125776946544647,0.08965780586004257,0.17345167696475983,-0.30313175916671753,-0.742678165435791,0.4523874819278717,0.05335826054215431
},
{
-0.3271512985229492,-0.1760915219783783,-0.7669851779937744,0.25353407859802246,0.254751592874527,-0.37745198607444763,-0.11838401854038239,-0.1826801896095276,-0.7466354966163635,0.24425990879535675,-0.30881360173225403,-0.3276386857032776,-0.1847516894340515,-0.08341016620397568,-0.37492498755455017,-1.0484123229980469,0.387566477060318,-0.05877313017845154,0.25713256001472473,-0.0010923653608188033,-0.08865545690059662,0.26050233840942383,-0.2637404203414917,0.18914301693439484
},
{
-0.24452073872089386,0.263408899307251,-0.2789589762687683,-0.01992952823638916,0.12612378597259521,-0.03278890252113342,-0.13268278539180756,-0.25894656777381897,0.1714194416999817,-0.09379361569881439,-0.2384238988161087,-0.22630241513252258,-0.13668450713157654,-0.23631495237350464,0.2758074998855591,-0.1832016110420227,0.1134462058544159,-0.029186546802520752,0.23509401082992554,0.019090741872787476,-0.1341632902622223,-0.23124760389328003,-0.14781050384044647,-0.25895577669143677
},
{
0.1415269523859024,0.27317726612091064,-0.041357241570949554,-0.04840904474258423,0.1775839626789093,0.1888379454612732,-0.7460746765136719,0.12449407577514648,0.016315367072820663,-0.0863916352391243,-0.3536134660243988,-0.17983491718769073,-0.06800655275583267,0.1479233205318451,-0.3370329439640045,0.2846387028694153,0.2848745882511139,-0.09907446801662445,0.13535793125629425,-0.38833704590797424,-0.6695381999015808,-0.22536756098270416,0.10358531028032303,-0.14923150837421417
},
{
0.23556919395923615,-0.1847207248210907,0.05245174840092659,0.24178898334503174,0.6830989718437195,0.3475213646888733,-0.7048009634017944,0.2866990566253662,0.20465965569019318,-0.11991686373949051,0.08117306232452393,0.4684666693210602,0.04463895410299301,-0.28128117322921753,-0.18831117451190948,0.34653639793395996,0.18907979130744934,-0.15474997460842133,-0.12516126036643982,-0.27940037846565247,-0.44761908054351807,-0.09305667877197266,-0.018228091299533844,-0.5204764008522034
},
{
-0.04486937075853348,0.009936213493347168,-0.20368345081806183,-0.23723652958869934,-0.4226681888103485,0.05701412260532379,0.5346540808677673,0.05076158046722412,-0.18453413248062134,0.023410571739077568,0.2658199071884155,-0.42029643058776855,-0.04094625636935234,0.15663538873195648,0.32754215598106384,-0.12357354164123535,-0.3138706088066101,0.06248784065246582,0.2880387008190155,0.5191758275032043,-0.23763705790042877,-0.7759201526641846,0.11603613942861557,0.10901305079460144
},
{
-0.1208701953291893,-0.11196184158325195,0.11678073555231094,0.1961430013179779,-0.43165135383605957,-0.1401137411594391,0.3325408399105072,0.02089899778366089,-0.14867673814296722,0.2573913335800171,0.4136546850204468,-0.6648666858673096,0.24952374398708344,-0.16047129034996033,0.27856507897377014,0.15385986864566803,-0.33734264969825745,0.1961069405078888,-0.2389562577009201,0.47306427359580994,-0.35599544644355774,-0.5270225405693054,0.2660127878189087,0.12761922180652618
},
{
0.20275834202766418,0.1932925283908844,0.20490887761116028,-0.2185629904270172,-0.5198677182197571,-0.06992145627737045,0.82203608751297,-0.00032898783683776855,0.12057802081108093,-0.43785375356674194,-0.11641672253608704,-0.7955734729766846,0.03914908692240715,0.38626164197921753,-0.20695732533931732,0.26115962862968445,0.09318061172962189,-0.13634216785430908,0.1758083701133728,-0.19371561706066132,-0.8199644684791565,-0.12920208275318146,-0.2223888784646988,0.0956248790025711
},
{
0.04561128467321396,0.20224136114120483,-0.1184438169002533,0.12202006578445435,-0.11748621612787247,0.21075068414211273,-0.4246823191642761,-0.2729179263114929,-0.059822507202625275,-0.35409510135650635,-0.1926533728837967,-0.025917574763298035,-0.2778254449367523,0.37027376890182495,-0.3049527108669281,0.3086698651313782,0.35006317496299744,0.18502652645111084,0.20527881383895874,-0.43750572204589844,-0.42338523268699646,0.025053752586245537,-0.2395893633365631,-0.0873023271560669
},
{
0.23451939225196838,0.028940439224243164,-0.24878045916557312,0.11827576160430908,-0.39745253324508667,0.11031541228294373,0.7480052709579468,-0.2584678828716278,-0.2923058569431305,0.21105965971946716,0.28307226300239563,-0.7934260964393616,0.12376651912927628,-0.09291025251150131,0.4226076304912567,-0.4496442377567291,-0.3707262873649597,0.11848524212837219,0.12478680163621902,0.0530085563659668,-0.11073707789182663,-0.8205541372299194,0.5010741949081421,-0.023979824036359787
},
{
0.09562014043331146,-0.04737190902233124,0.20920394361019135,-0.11049647629261017,0.3008785545825958,0.2626149356365204,-0.7126768231391907,-0.11979053914546967,0.1790560930967331,-0.5869885087013245,-0.35293713212013245,0.08941179513931274,0.13543350994586945,0.12229964882135391,0.043327875435352325,0.21152691543102264,0.10601000487804413,-0.027750849723815918,-0.19227086007595062,-0.36480286717414856,-0.5296885371208191,-0.03340783342719078,0.16783829033374786,-0.5057916045188904
},
{
0.059472691267728806,0.04659810662269592,-0.24081052839756012,-0.27720749378204346,-0.15491504967212677,-0.07583952695131302,-0.32611316442489624,-0.024504095315933228,-0.08653473854064941,-0.046049512922763824,-0.42620861530303955,-0.11821907758712769,-0.21280591189861298,0.06584374606609344,-0.043899018317461014,0.25668609142303467,0.2561313211917877,0.19200348854064941,0.13383924961090088,-0.46890029311180115,-0.1891639083623886,-0.26825323700904846,0.02147369086742401,-0.0633363202214241
},
{
0.17940424382686615,-0.2866792678833008,0.11389618366956711,0.001134246587753296,0.2083633691072464,0.014028321020305157,-0.773740828037262,-0.08212590217590332,-0.3518425524234772,-0.1789928674697876,-0.4823206961154938,-0.047654204070568085,0.00023399015481118113,0.07769296318292618,-0.1782897561788559,0.34666118025779724,0.5270065069198608,-0.04022149741649628,0.10468816757202148,-0.022817322984337807,-0.7026581168174744,0.11491280794143677,-0.4099993109703064,0.2812454402446747
},
{
0.11492618918418884,-0.008323699235916138,-0.2869820296764374,-0.27750301361083984,-0.05816902965307236,0.2127646952867508,0.038987480103969574,-0.013941854238510132,-0.0035398404579609632,-0.17930182814598083,-0.1448577344417572,-0.03579341620206833,0.09627512097358704,0.08701791614294052,-0.029454346746206284,-0.15439948439598083,-0.1163041964173317,0.06512925028800964,-0.0739380493760109,-0.21779711544513702,-0.25088754296302795,0.24347224831581116,0.044396571815013885,-0.20659726858139038
},
{
0.10972985625267029,0.21055170893669128,-0.31718504428863525,-0.27308449149131775,-0.1588262915611267,0.10107436776161194,-0.12412337958812714,-0.24898435175418854,-0.1418801099061966,-0.09339340031147003,-0.23036596179008484,-0.2558709383010864,0.24421025812625885,0.18814589083194733,0.04835360124707222,-0.30070772767066956,0.017361052334308624,-0.02356511354446411,-0.22485114634037018,-0.09844987094402313,0.24143067002296448,0.10648562759160995,-0.3067645728588104,-0.13744297623634338
},
{
-0.04334600269794464,0.0610315203666687,-0.18724320828914642,0.21235990524291992,0.9585217833518982,-0.0802188441157341,-0.9330747723579407,0.12876254320144653,0.11993302404880524,0.005978570785373449,-0.03926829993724823,0.8999561667442322,0.19064058363437653,-0.320323646068573,0.34317925572395325,-0.022086126729846,-0.04675499349832535,-0.023425668478012085,0.19097137451171875,0.20003733038902283,-0.7487186193466187,0.6345961689949036,-0.15510804951190948,-0.876800000667572
},
{
0.307489275932312,0.01432141661643982,0.2808220684528351,-0.2619246542453766,-0.21297019720077515,-0.16641519963741302,0.22343650460243225,-0.12104707956314087,-0.151948943734169,0.07734457403421402,-0.14073121547698975,-0.26160967350006104,-0.30683064460754395,-0.035681791603565216,-0.28700852394104004,0.07023507356643677,0.03606709465384483,0.22097396850585938,0.23903515934944153,0.17406877875328064,-0.2613450586795807,-0.4452647566795349,-0.20103687047958374,0.016216659918427467
},
{
0.10124028474092484,0.21221840381622314,0.052059538662433624,0.15221190452575684,-0.2900232672691345,0.13641473650932312,0.5536909699440002,0.08328795433044434,0.27301403880119324,-0.1270926296710968,-0.3166038990020752,-0.3738026022911072,-0.2619542181491852,-0.06467543542385101,-0.33126139640808105,0.02065233327448368,0.36158350110054016,0.26500415802001953,0.012607963755726814,-0.219056636095047,0.38587018847465515,-0.18636758625507355,0.12407651543617249,0.23862498998641968
},
{
-0.12541790306568146,-0.0021543800830841064,0.006876383442431688,-0.022882431745529175,-1.0978354215621948,0.09768731147050858,-0.42501407861709595,-0.17202669382095337,-0.15155525505542755,0.3608216941356659,0.4511372447013855,-0.8685504794120789,0.4933554530143738,-0.10153061896562576,0.6935451030731201,-0.3587701618671417,-0.3829151690006256,0.2426777482032776,0.09400419890880585,0.17893046140670776,-0.18686911463737488,-0.8186123371124268,0.3845002055168152,-0.08848082274198532
},
{
-0.23091551661491394,-0.22620895504951477,-0.27765101194381714,-0.12200939655303955,-0.12792523205280304,-0.22802498936653137,-0.1652466207742691,0.2538495659828186,-0.09547083079814911,-0.027704209089279175,-0.15937112271785736,-0.21679052710533142,-0.10591861605644226,-0.06603147089481354,-0.20967182517051697,0.007490277290344238,-0.06852942705154419,-0.059596702456474304,-0.22028183937072754,-0.11916510760784149,0.12709444761276245,-0.22444510459899902,0.19056332111358643,0.011993318796157837
},
{
0.016703689470887184,-0.11885726451873779,0.03551946207880974,-0.15229304134845734,-0.15354526042938232,-0.008521283976733685,0.39712339639663696,0.17111358046531677,-0.3440113067626953,-0.0861978828907013,-0.013680381700396538,-0.8395678997039795,-0.35467782616615295,0.11625663191080093,-0.06928083300590515,0.17105451226234436,0.05686572939157486,0.20172229409217834,0.04272017255425453,-0.1842583417892456,-1.10908043384552,0.06235474720597267,-0.1768021583557129,0.2104412317276001
},
{
0.09502354264259338,-0.15813246369361877,-0.14001139998435974,0.22806823253631592,-0.14824314415454865,-0.1622382551431656,0.14236220717430115,0.20420372486114502,-0.2433229684829712,-0.11532329767942429,0.04944305866956711,-0.2594677209854126,-0.0669262707233429,0.04498472809791565,0.06878416240215302,-0.08216032385826111,0.019913703203201294,-0.015132606029510498,-0.20751656591892242,0.2058579921722412,0.015602409839630127,-0.14867287874221802,-0.29718080163002014,-0.08955258876085281
},
{
0.12073644250631332,-0.08454698324203491,0.010199466720223427,0.10739284753799438,-0.42525097727775574,0.09946136176586151,0.0040278653614223,-0.04144555330276489,0.31523266434669495,-0.2520332932472229,-0.42778196930885315,0.011470341123640537,-0.25559407472610474,0.17183907330036163,-0.7877084016799927,-0.40941745042800903,0.33207449316978455,0.12914356589317322,-0.10053574293851852,-0.2197687178850174,-0.4172112047672272,-0.3103715181350708,-0.39265984296798706,0.2597150206565857
},
{
-0.27749866247177124,0.06510502099990845,0.22570711374282837,-0.12509457767009735,-0.02406635880470276,-0.02366921864449978,0.12934008240699768,-0.16358372569084167,0.05691308528184891,0.2030210793018341,-0.2058628499507904,-0.1541014313697815,-0.06364747136831284,0.1734694093465805,0.20568536221981049,-0.0848071426153183,-0.07867155224084854,-0.08984434604644775,-0.016964590176939964,0.17085103690624237,-0.27128490805625916,-0.09200353920459747,-0.2801132798194885,-0.024423880502581596
},
{
-0.29460394382476807,0.20445382595062256,0.21663080155849457,0.17787548899650574,0.0044640302658081055,-0.09958744794130325,-0.0490814745426178,0.28181523084640503,-0.2026503086090088,-0.11005552858114243,0.10879086703062057,-0.10300241410732269,-0.018984777852892876,0.13439306616783142,0.051909107714891434,-0.05204075574874878,-0.23419667780399323,0.05840367078781128,-0.14246833324432373,0.02834184095263481,-0.09119421243667603,-0.034972310066223145,0.04357149824500084,-0.07478360086679459
},
{
-0.1827908158302307,-0.13859207928180695,-0.2363315373659134,0.1034792959690094,-0.4766726791858673,0.14208947122097015,0.6924096941947937,-0.17844370007514954,-0.31467774510383606,0.21689258515834808,-0.007757145911455154,-0.3512963056564331,-0.3130633533000946,-0.04721718654036522,-0.05749949812889099,0.031089337542653084,-0.23197893798351288,-0.011916041374206543,0.21647034585475922,0.30161088705062866,-0.33964625000953674,-0.46809613704681396,-0.010412299074232578,0.0729464516043663
},
{
-0.13151942193508148,0.2541954517364502,0.04468826577067375,0.15047892928123474,0.5453513860702515,0.3019731938838959,0.7780497074127197,-0.2659250497817993,-0.4052048921585083,-0.46790727972984314,-0.3469983637332916,0.48052865266799927,-0.5625685453414917,-0.4303005635738373,-0.22879482805728912,-0.37452569603919983,-0.03611825779080391,-0.0794263631105423,-0.025710346177220345,-0.19623132050037384,-0.28945645689964294,-0.25773999094963074,-0.21673575043678284,0.12354565411806107
},
{
0.46367737650871277,-0.11414718627929688,-0.48367372155189514,-0.08195233345031738,-0.017310146242380142,0.08106980472803116,-0.2495405375957489,0.2759333848953247,-0.7332620620727539,-0.16781967878341675,0.16704398393630981,0.07323750108480453,0.2947292923927307,-0.4223550856113434,-0.04513547569513321,-1.1830546855926514,-0.16884160041809082,-0.2548845410346985,0.006273353938013315,0.06330469995737076,-0.002114534378051758,0.11549879610538483,0.258366197347641,-0.06918955594301224
},
{
0.1963828206062317,0.008866161108016968,-0.19529187679290771,0.2200613021850586,0.11333146691322327,-0.2841848134994507,-0.05441434681415558,-0.22414061427116394,0.03147280961275101,-0.07934972643852234,0.03591517359018326,0.06009041145443916,-0.1760576218366623,-0.06985732913017273,-0.26912981271743774,0.19704124331474304,-0.1310342699289322,-0.038684964179992676,-0.2807176411151886,-0.1456046849489212,-0.06749986112117767,-0.11669841408729553,-0.26015815138816833,0.3276804983615875
},
{
0.09993388503789902,0.2673829197883606,-0.19020090997219086,0.028806716203689575,0.6584818959236145,0.2618171274662018,-0.6057730317115784,-0.226503387093544,-0.03409093618392944,-0.46363964676856995,-0.488252729177475,0.08126639574766159,-0.11530496180057526,-0.08435564488172531,-0.07398875802755356,0.20287880301475525,0.39700064063072205,-0.04650326073169708,0.1912682205438614,-0.2656193971633911,-0.47441568970680237,0.04400033876299858,-0.20402246713638306,-0.49880650639533997
},
{
-0.2476745992898941,-0.08018489181995392,0.07109564542770386,0.20845037698745728,-0.06629638373851776,-0.2543894946575165,-0.11156223714351654,0.19340726733207703,0.2676725387573242,0.1210508644580841,0.09602963924407959,0.13601964712142944,0.03949132561683655,0.004749089479446411,-0.1645059883594513,-0.1291077882051468,-0.2606278359889984,-0.13698652386665344,-0.15647976100444794,-0.23282942175865173,0.1757802963256836,-0.18560177087783813,-0.2658251225948334,0.052139729261398315
},
{
0.0890849232673645,0.03524374961853027,0.21934261918067932,-0.025458425283432007,0.20057056844234467,-0.20816516876220703,-0.10148217529058456,0.273367702960968,0.15616129338741302,-0.1768311858177185,-0.30877432227134705,0.0489838570356369,0.18859584629535675,-0.2683134973049164,-0.22938354313373566,-0.17615573108196259,0.18272382020950317,0.13158515095710754,-0.14736822247505188,0.03998509421944618,-0.10516761243343353,0.044439032673835754,-0.25345101952552795,-0.24602608382701874
},
{
0.04242648929357529,0.16789081692695618,0.10715930163860321,0.06806397438049316,0.33836784958839417,0.26175200939178467,-0.7269704937934875,0.20751821994781494,-0.18642768263816833,-0.3085644245147705,-0.05422161519527435,-0.3130531311035156,0.03325579687952995,0.2100948542356491,-0.19042392075061798,0.13574644923210144,0.4609335660934448,0.03076094388961792,0.13814057409763336,-0.48075225949287415,-0.4957461655139923,0.05730590969324112,-0.3077358305454254,-0.16905921697616577
},
{
0.057898953557014465,-0.019126534461975098,0.3738093972206116,-0.18701297044754028,0.2921966016292572,-0.33497506380081177,-0.2926921844482422,-0.006090313196182251,0.23622667789459229,-0.17553897202014923,-0.6853053569793701,-0.10023412853479385,-0.3584723472595215,0.15104644000530243,-0.6325689554214478,0.04655672609806061,0.6132948398590088,0.2783260941505432,-0.4118117690086365,-0.5105157494544983,0.06067582592368126,0.08043895661830902,-0.022347811609506607,-0.11534260958433151
},
{
0.22355416417121887,-0.0904003232717514,0.034367192536592484,-0.20271164178848267,0.41211774945259094,-0.10084898769855499,-0.6076857447624207,0.11336469650268555,0.10575974732637405,-0.47802281379699707,-0.08169810473918915,-0.01675914041697979,-0.22029341757297516,0.40204501152038574,-0.5830153822898865,0.1640361100435257,0.32524847984313965,-0.2817249894142151,0.18338319659233093,-0.6432052850723267,-0.28255435824394226,-0.09507862478494644,-0.28112006187438965,0.11585380882024765
},
{
-0.2904602289199829,0.20198306441307068,-0.4742770791053772,0.20834881067276,0.5844424962997437,-0.12287977337837219,0.9102934002876282,0.0986318588256836,-0.058860111981630325,-0.25766029953956604,-0.37345418334007263,0.4115777313709259,-0.4615020453929901,-0.4823746085166931,0.014017214067280293,-0.11246103048324585,-0.0401880219578743,-0.10585762560367584,-0.19422459602355957,-0.04264986142516136,-0.31365156173706055,-0.0036665499210357666,-0.1488744020462036,0.041231926530599594
},
{
-0.34708017110824585,-0.09532210230827332,-0.16368503868579865,0.06430760025978088,-0.16736018657684326,-0.9183589816093445,0.11877217888832092,-0.08464924991130829,-0.13646627962589264,0.3135666251182556,-0.16204439103603363,0.11116331815719604,-0.7080759406089783,0.2650633454322815,-0.3812916874885559,-0.13210856914520264,0.3457759916782379,-0.2800068259239197,0.20371651649475098,-0.2280566394329071,0.15571647882461548,-0.17717628180980682,0.002220661612227559,0.27839764952659607
},
{
0.2403622418642044,-0.19653648138046265,-0.2575578987598419,-0.2558433711528778,-0.6789389848709106,0.13563939929008484,-0.4427797198295593,0.16343078017234802,-0.13508513569831848,0.5004091858863831,0.609285831451416,-0.2714584171772003,0.3523975610733032,0.12389449030160904,0.5500854849815369,-0.3461027443408966,-0.3090975284576416,-0.052716419100761414,-0.08729781955480576,0.13554075360298157,0.2782817482948303,-0.16169661283493042,0.34735041856765747,-0.05974380671977997
},
{
0.02125290222465992,0.20344194769859314,-0.4301457405090332,0.0996667742729187,0.0319971889257431,0.19707536697387695,0.29446035623550415,-0.19662436842918396,-0.1812269389629364,0.017619770020246506,0.20272181928157806,0.06892501562833786,-0.1747465282678604,-0.4083693325519562,-0.15297026932239532,0.12657073140144348,0.03906329721212387,-0.031229913234710693,0.07496554404497147,0.04631321132183075,-0.7301215529441833,-0.461121141910553,0.0334680899977684,-0.20172716677188873
}
};




