float Layer4_weights[24][48] = {
{
0.1957722008228302,-0.1077478677034378,0.15292227268218994,0.23409327864646912,-0.32287347316741943,0.10185965895652771,0.21114125847816467,0.48906365036964417,-0.058549292385578156,-0.5382298231124878,0.09959952533245087,-0.02739056944847107,-0.17494648694992065,0.30038192868232727,-0.5500213503837585,-0.4973943531513214,0.08260966837406158,0.29924747347831726,-0.5926949977874756,0.3321850895881653,0.07102851569652557,0.2172240912914276,0.19033673405647278,0.31189775466918945,0.09201325476169586,-0.16180363297462463,-0.0867137461900711,-0.9856107831001282,0.08580848574638367,0.0024112837854772806,-0.10509450733661652,0.5535821914672852,0.26279810070991516,0.1634605973958969,-0.33786383271217346,-0.7174844145774841,-0.17032553255558014,-0.11535909026861191,0.21937823295593262,-0.016177773475646973,0.01327771320939064,0.25140494108200073,0.08009497821331024,0.33966875076293945,-0.5415169596672058,0.3224267065525055,-0.5190365314483643,-0.2165842056274414
},
{
-0.1256941705942154,-0.2676905691623688,-0.2327904850244522,0.2611209750175476,-0.02421863190829754,0.174658864736557,0.227830708026886,0.7385399341583252,-0.0849592536687851,-0.29250389337539673,-0.03205367922782898,0.057598501443862915,0.07234552502632141,0.12783931195735931,-0.6208257675170898,-0.3457038700580597,-0.2166842669248581,-0.013073042966425419,-0.679522693157196,-0.009645645506680012,-0.08953537791967392,0.17172378301620483,0.06057363376021385,0.25448769330978394,0.12981745600700378,-0.20463258028030396,-0.1178959310054779,-1.0082602500915527,-0.1956074833869934,0.10184551775455475,-0.27103108167648315,0.41171738505363464,0.2622673511505127,0.08592825382947922,-0.15960761904716492,-0.7067083120346069,0.2637324333190918,0.029939191415905952,-0.16046391427516937,0.27815818786621094,-0.15256619453430176,0.1349615603685379,-0.19129273295402527,-0.14523492753505707,-0.5253652930259705,-0.10030286014080048,-0.21589885652065277,0.12489630281925201
},
{
-0.1344635784626007,-0.02909795753657818,-0.15498700737953186,0.10720489919185638,-0.08094017952680588,0.01669405773282051,0.35329562425613403,-0.6518018245697021,-0.1958075314760208,0.11590171605348587,-0.13362199068069458,-0.2756843864917755,0.08774848282337189,-0.12024407088756561,-0.11045554280281067,-0.1918630599975586,0.257011353969574,0.09886935353279114,0.19397088885307312,0.09294722974300385,0.28089526295661926,0.1869627684354782,-0.15435172617435455,0.018262598663568497,-0.2690679728984833,0.21757745742797852,0.2425140142440796,-0.14057238399982452,-0.023792624473571777,-0.022975649684667587,0.029062656685709953,-0.5018224716186523,-0.19316723942756653,0.08202440291643143,0.19896212220191956,0.8607879877090454,-0.30890417098999023,0.03263109549880028,-0.3393084406852722,0.13005495071411133,-0.06453827768564224,0.4549403786659241,-0.13144724071025848,0.22969737648963928,0.4434022903442383,-0.10162665694952011,0.02705514244735241,-0.1330403834581375
},
{
0.10847589373588562,0.060904860496520996,0.05628225579857826,-0.14072489738464355,0.1587298959493637,0.11354857683181763,0.12607638537883759,-0.1939784288406372,0.24491071701049805,0.15181396901607513,0.24557237327098846,-0.11144749820232391,-0.08329204469919205,-0.1966060996055603,-0.2706274092197418,-0.18856489658355713,0.2027784287929535,-0.19356469810009003,-0.07381535321474075,0.13317349553108215,0.11223013699054718,-0.04922659695148468,0.017206519842147827,0.2696652412414551,-0.3249926269054413,-0.3083309531211853,-0.10677695274353027,-0.042509306222200394,0.041016072034835815,-0.2733706533908844,-0.2508227527141571,-0.03485705703496933,-0.13458071649074554,0.23977887630462646,-0.19467711448669434,0.09411400556564331,0.18146675825119019,-0.06081134080886841,0.001812485745176673,-0.14976286888122559,0.1841733455657959,-0.0830797478556633,-0.17742004990577698,-0.05977236479520798,-0.05501873046159744,-0.1785709261894226,-0.1839309185743332,0.056676771491765976
},
{
0.09576639533042908,-0.22518940269947052,-0.864815890789032,-0.014365737326443195,0.03436092287302017,0.006854570005089045,-0.08549879491329193,-0.845639169216156,-0.2851632237434387,0.16258504986763,-0.0702662393450737,0.15117380023002625,-0.14141516387462616,0.04709429666399956,-0.08781663328409195,0.05949518084526062,-0.004659090656787157,0.15619583427906036,-0.07516464591026306,-0.06430692970752716,-0.09781356900930405,0.07401079684495926,0.25222885608673096,-0.2057162970304489,-0.6771312355995178,0.13672533631324768,-0.18575863540172577,0.02968384139239788,-0.053514525294303894,0.06909362226724625,-0.19546158611774445,-0.6593735218048096,0.16956733167171478,0.05012185499072075,-0.08627090603113174,0.8848509788513184,-0.019895831122994423,-0.29182806611061096,0.03606615960597992,-0.04478062689304352,0.044150300323963165,-0.12479616701602936,-0.5067456364631653,-0.8502880930900574,0.29115942120552063,-0.34416821599006653,-0.09535998106002808,0.257311075925827
},
{
0.018006352707743645,-0.10485665500164032,-0.4713048040866852,-0.030717743560671806,0.11694853007793427,-0.3795579969882965,-0.33178529143333435,-0.8523168563842773,0.20504076778888702,-0.1343510001897812,0.11176560819149017,-0.10563622415065765,0.07104422897100449,-0.22843755781650543,-0.03219006210565567,-0.10450337827205658,0.05880942940711975,0.09763848781585693,0.1310344785451889,-0.024224070832133293,-0.07976030558347702,0.14593802392482758,0.2053123116493225,0.12105841934680939,-0.7565559148788452,-0.107330821454525,0.15213413536548615,0.2373608648777008,-0.11209075152873993,0.2765641510486603,0.03931770473718643,-0.39772579073905945,0.034534089267253876,-0.17952489852905273,0.014554111286997795,0.7825260758399963,-0.13294513523578644,0.03694627434015274,-0.14685781300067902,0.16200342774391174,0.2431066483259201,0.31434011459350586,-0.022093752399086952,-0.2880668044090271,0.6954114437103271,-0.4025510847568512,-0.38028404116630554,0.1559026539325714
},
{
-0.023003695532679558,0.1410631686449051,-0.3834117650985718,0.3002174198627472,0.1508762389421463,0.11491407454013824,0.21012713015079498,0.1741863489151001,-0.0658385381102562,-0.1159767434000969,0.05597328022122383,0.16295790672302246,0.018990932032465935,0.3062332570552826,-0.06873443722724915,-0.2378707230091095,-0.4687674641609192,-0.14348560571670532,-0.2258661836385727,0.046662338078022,-0.011269673705101013,-0.1850879043340683,-0.0441756397485733,-0.0850098580121994,-0.36042824387550354,-0.20695795118808746,0.08058042824268341,0.12104771286249161,0.2303040623664856,-0.17931973934173584,0.005019681993871927,0.2479269653558731,0.11202410608530045,-0.158905491232872,-0.04616059362888336,-0.33614206314086914,0.09542132169008255,0.27090564370155334,0.15883184969425201,0.10389265418052673,0.1739068329334259,-0.196365088224411,0.3842344880104065,0.022616535425186157,-0.16429467499256134,-0.27252236008644104,0.38255566358566284,0.2567552924156189
},
{
0.08674240857362747,-0.17776721715927124,0.1049509271979332,0.3573122024536133,0.18429365754127502,-0.47932887077331543,-0.23556800186634064,0.4047546088695526,0.050797976553440094,0.40845760703086853,-0.45904698967933655,0.12910649180412292,0.02954615280032158,0.28099629282951355,0.07114162296056747,0.028254911303520203,-0.30199021100997925,-0.537222146987915,-0.0043788268230855465,0.2693910598754883,-0.29721614718437195,-0.16848689317703247,0.04372944310307503,0.09502223134040833,0.3156280815601349,-0.14504565298557281,-0.4789671301841736,0.2981180250644684,-0.22608286142349243,-0.17164213955402374,0.09555754065513611,0.2541566491127014,-0.1450096219778061,-0.19948801398277283,0.11388157308101654,-0.6048394441604614,0.28408631682395935,-0.1329437792301178,-0.25084584951400757,-0.17602339386940002,-0.17876005172729492,-0.7460923790931702,0.17958718538284302,-0.1019790843129158,-0.17282511293888092,-0.15364646911621094,0.04289060831069946,-0.12969812750816345
},
{
0.16153718531131744,-0.11295923590660095,0.063917376101017,-0.0757015123963356,-0.2000211626291275,0.026317564770579338,-0.46073275804519653,-0.6084489822387695,0.16877758502960205,-0.340636670589447,0.12807151675224304,0.14740407466888428,0.26218271255493164,-0.07472214102745056,0.3655640184879303,0.13075211644172668,0.09964330494403839,0.25612959265708923,0.11606261134147644,-0.13746672868728638,0.17801432311534882,0.3599523603916168,0.011495460756123066,0.08379825949668884,0.18390533328056335,-0.0015603662468492985,-0.15356820821762085,-0.13273169100284576,-0.15618732571601868,0.2591841518878937,-0.16238802671432495,0.5031092166900635,0.0878686010837555,0.09579452127218246,-0.003606241662055254,-0.403534471988678,-0.22921974956989288,0.13712690770626068,0.024032266810536385,-0.27247634530067444,0.1009121909737587,0.03237995132803917,-0.3293479382991791,0.2899560034275055,-0.30422717332839966,0.6312426924705505,-0.267366498708725,0.19605892896652222
},
{
-0.2466215193271637,-0.19833070039749146,0.35169580578804016,-0.1997613161802292,-0.16694003343582153,-0.18522010743618011,-0.05428514629602432,0.6010754704475403,-0.20104935765266418,-0.6934621334075928,-0.019304756075143814,0.00898715853691101,0.20974695682525635,0.10356204211711884,-0.055224668234586716,-0.1972028762102127,0.34135937690734863,0.4077335298061371,-0.9041878581047058,0.4656125009059906,0.19790005683898926,0.2695392370223999,-0.12426436692476273,-0.21833768486976624,0.0022027960512787104,-0.19506098330020905,0.06969665735960007,-0.7581949830055237,-0.026903271675109863,-0.19847771525382996,0.04488125070929527,0.4217424988746643,-0.16484889388084412,0.05621539056301117,0.15489275753498077,-0.6259928345680237,-0.14512024819850922,-0.13928833603858948,0.34783223271369934,-0.09693089127540588,-0.0023070895113050938,-0.18184463679790497,-0.020206788554787636,0.11726208031177521,-0.3886208236217499,0.2736653685569763,-0.5403833389282227,0.05250592902302742
},
{
-0.026907002553343773,0.17249277234077454,0.18346533179283142,-0.08408292382955551,-0.14138421416282654,0.0736204981803894,-0.34557345509529114,-0.32462993264198303,-0.02140343189239502,0.1841384768486023,0.0019004244823008776,-0.039491042494773865,-0.3404380977153778,0.02749529667198658,0.0358748659491539,-0.1944030225276947,0.02126927487552166,-0.05474219471216202,0.10763869434595108,-0.5133716464042664,-0.3030884861946106,-0.17009732127189636,0.2097623348236084,0.09630203247070312,0.04828852787613869,-0.0327238030731678,-0.1472102403640747,0.2084220051765442,0.0726727843284607,0.08344633132219315,-0.08123151957988739,0.08483882993459702,0.24674898386001587,-0.008273512125015259,0.1433931142091751,0.23656444251537323,-0.12034729868173599,-0.01975780725479126,-0.15171924233436584,-0.1779899299144745,0.20833221077919006,0.03599846735596657,-0.29576268792152405,0.02837427146732807,0.3080011308193207,-0.2754600942134857,-0.09896553307771683,0.06638400256633759
},
{
0.0972946286201477,0.1096247136592865,-0.24179697036743164,0.05090602487325668,-0.26377126574516296,0.09868642687797546,-0.1408328264951706,0.07435276359319687,0.21720552444458008,0.18105868995189667,0.12034553289413452,0.05320197343826294,0.17009082436561584,-0.19379357993602753,-0.04226899892091751,-0.1694336086511612,-0.18732041120529175,0.031952738761901855,-0.009173228405416012,-0.28834104537963867,-0.057654380798339844,-0.213983416557312,0.11957365274429321,-0.16000452637672424,-0.04121622443199158,-0.11827678978443146,0.2687654495239258,0.0017917697550728917,-0.13633191585540771,-0.19153988361358643,0.06911155581474304,-0.2755511999130249,0.1931241750717163,-0.09551577270030975,-0.17384304106235504,0.16125357151031494,-0.17269009351730347,0.23462164402008057,0.250169038772583,-0.2565004527568817,-0.09912367165088654,-0.11715403199195862,0.16591423749923706,-0.28432151675224304,-0.2827291488647461,-0.10989776253700256,0.11109592020511627,-0.26890653371810913
},
{
0.05398455262184143,0.04199758917093277,0.2831510007381439,0.18577075004577637,-0.5700578689575195,0.030948227271437645,0.1984110176563263,0.491722971200943,-0.16012020409107208,-0.554783284664154,0.13099445402622223,-0.106625035405159,0.3289061188697815,0.03906010091304779,-0.3423719108104706,-0.7020189762115479,0.13188636302947998,0.2249092012643814,-0.8277037739753723,0.018356557935476303,-0.03447892516851425,0.10340448468923569,0.040389325469732285,-0.11100926250219345,0.17951227724552155,0.11558619141578674,0.23729892075061798,-0.6430500149726868,0.24648064374923706,-0.019728507846593857,-0.09588320553302765,0.5806916952133179,0.24432437121868134,-0.09442432969808578,-0.12766015529632568,-0.7422456741333008,-0.06444188207387924,-0.1171373501420021,-0.029321802780032158,-0.05168032646179199,0.121610626578331,0.30656862258911133,-0.17897604405879974,0.2592957615852356,-0.4516027271747589,0.06019451841711998,-0.6927566528320312,-0.10557657480239868
},
{
-0.22617296874523163,0.08820492029190063,-0.9331808686256409,-0.126634880900383,0.39317208528518677,-0.454376757144928,-0.45730194449424744,-0.27663177251815796,-0.24552568793296814,0.36133095622062683,-0.29698848724365234,0.026374071836471558,-0.020180903375148773,-0.11928218603134155,0.06352733075618744,-0.06287404149770737,0.18282218277454376,0.19138815999031067,0.2402961552143097,-0.143508180975914,0.2354736030101776,0.005571614019572735,-0.17997291684150696,-0.1709921658039093,-0.4821952283382416,-0.15181200206279755,-0.13887640833854675,0.37456247210502625,-0.2510242760181427,-0.1921883225440979,-0.255172997713089,-0.6416544318199158,0.15155082941055298,-0.21803238987922668,-0.03782527148723602,0.5067155957221985,-0.19884203374385834,-0.06152842566370964,-0.33467230200767517,0.2337210774421692,-0.10221623629331589,-0.2360297441482544,-0.14143308997154236,-0.407492995262146,0.5329588055610657,-0.6355106234550476,0.32704949378967285,0.016418950632214546
},
{
0.27300769090652466,0.09115684032440186,-0.05225590616464615,-0.05914413928985596,-0.15577588975429535,-0.03961079195141792,0.08477257192134857,-0.14891760051250458,0.1531299650669098,-0.07613125443458557,0.08899568021297455,0.08160153031349182,0.018998539075255394,-0.14989537000656128,0.045824650675058365,0.08584506064653397,-0.22129924595355988,-0.14542588591575623,0.10917381942272186,0.01628410816192627,0.06456223875284195,0.22604376077651978,-0.06328217685222626,-0.15885190665721893,-0.16132301092147827,0.15197822451591492,-0.3075154721736908,0.0397871769964695,-0.10999803245067596,-0.16110417246818542,-0.14726924896240234,0.1486905813217163,0.12403129786252975,-0.04515022039413452,-0.2634747624397278,-0.062219440937042236,0.09031039476394653,-0.118289515376091,0.022153930738568306,0.1564197540283203,0.24891704320907593,-0.2559461295604706,0.00527644157409668,-0.13903556764125824,-0.08155809342861176,0.15058913826942444,-0.24667981266975403,0.2584053575992584
},
{
0.16856306791305542,0.1585300862789154,-0.11848996579647064,0.19706682860851288,-0.013250402174890041,-0.10218211263418198,0.22187352180480957,0.34659668803215027,0.13674810528755188,0.09509269893169403,0.09383725374937057,0.2184620499610901,0.23408198356628418,0.14088213443756104,0.10132396966218948,0.054236169904470444,-0.122410349547863,-0.4318735599517822,-0.1980089545249939,0.2586986720561981,-0.49577605724334717,-0.038983482867479324,0.21338987350463867,-0.25306418538093567,-0.0859680324792862,-0.004576496314257383,-0.4868253171443939,0.12614642083644867,0.006803601980209351,-0.010191196575760841,-0.1818840205669403,-0.20655658841133118,-0.03886652737855911,0.2844207286834717,-0.016767185181379318,-0.19410920143127441,-0.03122788853943348,0.03758490830659866,0.10812336206436157,-0.21356233954429626,0.29766640067100525,-0.36705464124679565,0.0055720191448926926,-0.3384717106819153,0.0753324031829834,0.14434580504894257,0.34379884600639343,-0.010719947516918182
},
{
0.051977090537548065,0.14350445568561554,-0.7116723656654358,0.15649648010730743,-0.2012692391872406,-0.2820826470851898,0.06639505922794342,-0.4252876341342926,-0.2420336902141571,0.32834649085998535,-0.1807805448770523,-0.02637380361557007,0.20214879512786865,-0.3449876606464386,0.1297839879989624,0.21012699604034424,0.041604865342378616,0.2539219558238983,0.13779816031455994,-0.06886743009090424,-0.12362583726644516,0.19441364705562592,0.16797080636024475,0.2267358899116516,-0.8957552313804626,-0.1389249563217163,0.16501611471176147,-0.07391031086444855,-0.09220919013023376,0.03386492654681206,-0.15178683400154114,-0.24986578524112701,-0.118040069937706,0.11740794777870178,0.008586031384766102,0.8389477133750916,0.034423645585775375,-0.06003567948937416,-0.4997703731060028,-0.09488236904144287,-0.00882337149232626,-0.15958955883979797,-0.5274547934532166,-0.6687540411949158,0.6417408585548401,-0.18817833065986633,-0.21448886394500732,0.08931468427181244
},
{
-0.16261634230613708,0.1513175666332245,0.25159114599227905,-0.030839622020721436,-0.7008355855941772,-0.1355617195367813,-0.3052620589733124,-0.12924984097480774,0.1467459797859192,-0.2944173216819763,0.1696757823228836,0.1280856728553772,0.15385910868644714,-0.14442142844200134,-0.16650499403476715,-0.11829941719770432,0.2108604907989502,0.3121981620788574,-0.5033965706825256,0.09436628967523575,0.20934756100177765,-0.08101703971624374,0.11392956972122192,-0.25431013107299805,-0.38935038447380066,0.2752358615398407,0.15129195153713226,-0.2698976993560791,-0.08460700511932373,-0.03202427178621292,-0.05628571659326553,0.6421304941177368,-0.014417119324207306,0.19855256378650665,-0.027617042884230614,0.01977783814072609,-0.056057821959257126,0.2735380232334137,-0.050475139170885086,0.019315659999847412,-0.01243552565574646,0.01666058413684368,-0.7359113693237305,0.5553472638130188,0.21234726905822754,-0.06440137326717377,-0.448509156703949,0.1453462541103363
},
{
0.22656305134296417,0.02137693576514721,0.14975516498088837,-0.024014383554458618,-0.4207494854927063,-0.03290992230176926,-0.23528479039669037,-0.004406440071761608,0.1999610960483551,-0.37804466485977173,0.37900394201278687,0.25006502866744995,0.34241411089897156,0.07343000918626785,0.2161974161863327,0.2460663765668869,0.23792828619480133,0.3574347496032715,-0.2241068035364151,-0.26181095838546753,0.14590415358543396,0.5018032193183899,0.06816574931144714,-0.002564579714089632,-0.1526375263929367,0.36342528462409973,0.08821655064821243,-0.4310813248157501,0.15177574753761292,0.5185446739196777,-0.11629125475883484,0.2279532551765442,-0.17868447303771973,-0.19616751372814178,0.37267985939979553,-0.43052875995635986,-0.0164966844022274,-0.17382891476154327,-0.09588798135519028,-0.04578286409378052,0.2658126950263977,0.15607289969921112,-0.7300222516059875,0.25932660698890686,-0.23915906250476837,0.3961144983768463,-0.5729289054870605,0.09402598440647125
},
{
-0.11116688698530197,-0.0190749354660511,0.09941217303276062,0.3003751039505005,0.055844277143478394,0.3586888611316681,-0.01979266107082367,-0.5946191549301147,0.22912083566188812,0.007243042346090078,0.2426513433456421,-0.1638902723789215,-0.1482768952846527,0.22800534963607788,-0.2135062962770462,-0.2735578417778015,-0.0031661426182836294,0.09601491689682007,-0.3550874888896942,0.0253770649433136,0.2449040710926056,0.49804967641830444,0.06824332475662231,0.2331012487411499,0.005422454793006182,-0.06634700298309326,0.1724693924188614,-0.25155583024024963,0.18120187520980835,0.36195990443229675,0.3113902807235718,-0.07553911954164505,0.08909834176301956,-0.07115120440721512,0.019183449447155,0.27091747522354126,-0.3454943001270294,0.01844453625380993,0.4442398250102997,-0.1478383094072342,-0.05627918243408203,0.10828261077404022,-0.33338937163352966,-0.26360467076301575,0.3292360007762909,-0.16555887460708618,0.0016685568261891603,-0.18790893256664276
},
{
-0.20408444106578827,0.03596779704093933,-0.5792796611785889,0.3310282528400421,0.43342772126197815,-0.1292334944009781,-0.21613390743732452,0.421692818403244,-0.049693040549755096,0.4801214635372162,-0.37034836411476135,0.14366212487220764,0.03995382785797119,0.19628304243087769,-0.1728593409061432,0.3776205778121948,0.07389054447412491,-0.2242979258298874,0.5102604031562805,-0.013120744377374649,0.29845964908599854,-0.25647661089897156,-0.12564241886138916,0.23267501592636108,-0.5313098430633545,0.026642274111509323,0.12164435535669327,0.5126060843467712,0.005838185548782349,0.24094361066818237,0.09230321645736694,-0.46155497431755066,-0.19606730341911316,0.03355324640870094,-0.1848476082086563,0.6270750761032104,0.06932923197746277,0.17254215478897095,0.10149208456277847,0.21230101585388184,-0.0036993385292589664,0.24388448894023895,-0.6518976092338562,-0.1870163232088089,0.41688215732574463,-0.4335649013519287,0.4378066658973694,-0.11739812046289444
},
{
0.16378603875637054,0.182386115193367,-0.4141033887863159,0.21145601570606232,0.1521005779504776,-0.2030687779188156,0.2615627944469452,-0.6577492952346802,-0.28997212648391724,0.008495170623064041,-0.2317132204771042,0.23087048530578613,0.25215286016464233,-0.27902108430862427,0.1935766339302063,0.23581354320049286,0.11544297635555267,0.06857676059007645,0.2148793488740921,-0.1404377818107605,-0.09464371204376221,-0.13470911979675293,0.250514417886734,0.2686830163002014,-0.7344503998756409,-0.02977839857339859,-0.25455597043037415,0.2583911716938019,0.2240404486656189,0.1960446536540985,-0.05943484231829643,-0.8902473449707031,-0.11364351958036423,-0.11996322125196457,0.1388317346572876,0.4966152310371399,0.14808893203735352,-0.3391672968864441,0.04893423244357109,0.2182168960571289,-0.21544446051120758,0.014269905164837837,-0.40987884998321533,-0.83808833360672,0.4319480061531067,-0.5762978196144104,-0.19528192281723022,0.10372790694236755
},
{
0.12236162275075912,-0.17719700932502747,-0.47169798612594604,0.08113478869199753,0.41472679376602173,-0.6016855239868164,-0.686471700668335,0.582414448261261,-0.05643484368920326,0.423866331577301,-0.22305916249752045,0.16843095421791077,-0.35847359895706177,-0.0800592303276062,0.3280101716518402,0.06710312515497208,-0.5918076634407043,-0.4635852873325348,0.6089083552360535,-0.31029829382896423,-0.07674381881952286,-0.5286161303520203,-0.01938357576727867,0.007692426443099976,0.10183317959308624,-0.20898182690143585,-0.306093692779541,0.4728374183177948,-0.1807779222726822,-0.2301463633775711,-0.1522822380065918,-0.5432679653167725,0.1716006100177765,0.275499552488327,0.019386257976293564,0.15657787024974823,0.2320878803730011,0.08361002802848816,0.06762685626745224,-0.17414431273937225,0.001952559337951243,-0.5421309471130371,0.18220113217830658,-0.6781732439994812,-0.15175612270832062,-0.4048722982406616,0.18432864546775818,0.24798500537872314
},
{
-0.24413295090198517,-0.0875559002161026,0.016393905505537987,0.10185174643993378,-0.053200505673885345,0.12793399393558502,-0.054579973220825195,0.022123921662569046,0.05742882937192917,0.15911002457141876,0.24229696393013,0.26150548458099365,-0.030937621369957924,0.05908293277025223,0.2958163917064667,0.0926278755068779,-0.0893583819270134,-0.14449740946292877,-0.3511756658554077,0.05898873135447502,-0.5555325746536255,-0.15373417735099792,-0.07941968739032745,-0.11538627743721008,0.1541881263256073,-0.327046662569046,-0.13889098167419434,0.1340729147195816,0.24175119400024414,-0.40100517868995667,0.15553174912929535,0.31833797693252563,-0.15397603809833527,-0.21040143072605133,0.238005131483078,-0.3964000642299652,-0.23134560883045197,-0.0621081218123436,-0.0734402984380722,0.14394739270210266,-0.11671681702136993,-0.2961181700229645,0.19999553263187408,-0.054528795182704926,-0.08838625252246857,0.35921216011047363,-0.24942505359649658,0.0053878971375525
}
};



