float Layer5_weights[3][24] = {
{
-0.4640396237373352,-0.35097676515579224,0.4417561888694763,0.1750173717737198,0.49340277910232544,0.42004328966140747,0.3108982741832733,-0.20626713335514069,0.2195422202348709,-0.3138137459754944,-0.06721911579370499,-0.03718968480825424,-0.7304575443267822,0.4499433636665344,-0.07502403110265732,0.024863991886377335,0.3835732042789459,-0.2872050106525421,-0.4935806393623352,0.44874900579452515,0.1681598573923111,0.4306587874889374,-0.9852363467216492,0.3144814968109131
},
{
0.6305562257766724,0.3800632655620575,-0.15712860226631165,0.39682456851005554,-0.022561674937605858,0.007458821404725313,0.2863377034664154,-0.29535040259361267,0.46993929147720337,0.5813131332397461,0.20976750552654266,0.422384649515152,0.5456315875053406,-0.45127224922180176,-0.35964739322662354,-0.4995102882385254,-0.3457806408405304,0.382755845785141,-0.04093465581536293,0.3416644036769867,-0.08418303728103638,-0.48750025033950806,0.5739784836769104,0.3069649040699005
},
{
-0.34279894828796387,-0.07442714273929596,-0.2306603342294693,0.01590201072394848,0.1525266319513321,-0.16990801692008972,0.31244805455207825,0.6052020788192749,-0.5926284790039062,0.06518438458442688,-0.18178144097328186,0.03763024881482124,0.5853056311607361,0.3113841712474823,0.06369727104902267,0.08915980905294418,-0.11264072358608246,-0.4307956099510193,1.060291051864624,-0.24692989885807037,0.46593257784843445,-0.08182814717292786,0.17471571266651154,0.2783784568309784
}
};


