float Layer2_bias[32] = {-0.09645101428031921,-0.08032798767089844,-0.14143267273902893,0.0866195559501648,0.17648279666900635,0.012352410703897476,0.03173474594950676,-0.13907749950885773,-0.00439841253682971,0.16463829576969147,0.0,-0.018159570172429085,-0.14698168635368347,0.028172757476568222,-0.21081991493701935,0.005331312771886587,-0.2035352885723114,-0.17230215668678284,-0.17808304727077484,-0.14827382564544678,-0.09960092604160309,0.0865396037697792,-0.11719644069671631,-0.07488121092319489,-0.16363011300563812,0.13422630727291107,0.061802223324775696,0.018681757152080536,0.03068239986896515,-0.10290252417325974,-0.07176722586154938,-0.13353171944618225};
float Layer3_bias[64] = {-0.07065065950155258,0.00434799212962389,0.07021574676036835,-0.01702951267361641,-0.05425289273262024,-8.110867383948062e-06,-0.21042901277542114,-0.03004605509340763,0.14759598672389984,-0.3120037615299225,0.1316055953502655,0.01412956602871418,-0.06586653739213943,-0.01913028582930565,0.001229817047715187,0.18353959918022156,-0.04687536135315895,0.01828089728951454,-0.0077977110631763935,0.09931512176990509,-0.051031701266765594,0.07662677764892578,-0.011669948697090149,-0.015979111194610596,-0.2342914491891861,-0.09063184261322021,0.007822789251804352,0.024692362174391747,0.1914876401424408,-0.10587731003761292,0.13538703322410583,0.0038784912321716547,-0.04144782945513725,-0.018667949363589287,0.09308093041181564,-0.07246274501085281,-0.010297360830008984,-0.031175047159194946,0.0900355651974678,-0.011779671534895897,-0.035179503262043,-0.10848614573478699,0.0571187324821949,-0.0711388811469078,-0.007105386815965176,0.13185973465442657,0.16204933822155,-0.07294629514217377,0.10964056104421616,-0.05917412042617798,-0.048001956194639206,-0.07122199982404709,-0.07441356033086777,0.26898691058158875,0.038768477737903595,-0.3743850588798523,-0.034886036068201065,-0.12284355610609055,-0.10276006162166595,-0.040884293615818024,-0.009057153016328812,-0.2689966559410095,-0.027919167652726173,-0.013567283749580383};
float Layer4_bias[32] = {-0.11935944110155106,0.15857727825641632,0.2533121109008789,0.21348853409290314,-0.03086594119668007,-0.06792189180850983,0.10897334665060043,0.13211719691753387,-0.007893363945186138,-0.06434595584869385,-0.14475955069065094,0.12573567032814026,-0.09395930171012878,-0.10890960693359375,0.15356749296188354,-0.03890889883041382,0.06555024534463882,-0.03617318719625473,0.2694743871688843,-0.11393611133098602,-0.11830918490886688,0.1327248215675354,0.01916699856519699,0.2878060042858124,0.13866209983825684,0.14352409541606903,-0.08349183946847916,-0.05717260017991066,0.1659577339887619,-0.10667923092842102,-0.08961562067270279,0.21815802156925201};
float Layer5_bias[4] = {0.08414092659950256,0.19109448790550232,0.1040986031293869,0.18968673050403595};
