float Layer4_weights[32][64] = {
{
-0.30720895528793335,-0.16606266796588898,-0.16838696599006653,-0.48049116134643555,-0.09822610020637512,0.1806938499212265,0.2049986869096756,0.12352889776229858,-0.150175541639328,0.10419454425573349,-0.5516133308410645,0.1319565773010254,0.24663656949996948,0.15245196223258972,-0.018804509192705154,-0.027708157896995544,-0.23706084489822388,-0.6049133539199829,-0.34602871537208557,0.0409051775932312,0.1564096212387085,-0.09258478134870529,-0.5147145390510559,-0.16602474451065063,-0.19370734691619873,-0.13712358474731445,-0.09691881388425827,0.09528277069330215,-0.14978334307670593,-0.26017963886260986,0.2915019392967224,-0.10418648272752762,0.14285658299922943,-0.2381449043750763,-0.18185435235500336,0.13626982271671295,-0.1830260455608368,0.14746823906898499,0.1496911197900772,0.10271233320236206,-0.17988532781600952,0.15262563526630402,-0.05171244591474533,-0.04588127136230469,-0.09620459377765656,0.02504384145140648,-0.042069096118211746,-0.16371864080429077,-0.10027400404214859,0.22643889486789703,-0.011792898178100586,-0.0394994281232357,-0.2775596082210541,-0.1455574333667755,-0.27451011538505554,0.17104725539684296,0.03889948129653931,0.1077941432595253,-0.2627868056297302,0.1642773151397705,0.19560736417770386,-0.25867459177970886,-0.1129310131072998,0.07659241557121277
},
{
0.0929577574133873,-0.11257161945104599,0.4105953872203827,0.11959230899810791,-0.9796276092529297,0.036715731024742126,0.4378986358642578,-0.03171151131391525,-0.38064733147621155,-1.3302392959594727,-0.07084138691425323,0.16734696924686432,0.059162985533475876,-1.0342484712600708,-0.1975954920053482,0.1975785791873932,-0.09253226965665817,0.2153647541999817,0.08991914987564087,0.007940910756587982,0.25603893399238586,0.3085341453552246,-0.45918312668800354,-0.00433447677642107,0.21649090945720673,-0.04482913762331009,0.14754512906074524,-0.39684778451919556,0.07561145722866058,0.3440035581588745,-0.23458051681518555,0.3614059090614319,0.03443523123860359,-0.05914749577641487,-0.07395199686288834,0.20703497529029846,0.1402837336063385,-0.1450308859348297,-0.04345977306365967,-0.12596246600151062,-0.9447827935218811,-0.2965528070926666,0.2219586819410324,0.06302133947610855,0.2871226668357849,0.08992075175046921,-0.0394396148622036,0.07012993097305298,0.12791410088539124,-0.11047407239675522,-0.06089521571993828,-0.29572176933288574,-0.07260002940893173,0.17871789634227753,-0.8919124007225037,-1.199997067451477,-0.04097578302025795,-0.43049705028533936,0.19812078773975372,0.1549816131591797,0.016671210527420044,-0.44937509298324585,-0.1523352563381195,-0.22203604876995087
},
{
0.01889897882938385,-0.0903668999671936,0.07598310708999634,0.2120044231414795,-1.0875146389007568,0.19736458361148834,-0.5558172464370728,0.21883954107761383,0.1717696338891983,0.047937072813510895,-0.0951986312866211,-0.04447563737630844,-0.20707610249519348,0.11044222116470337,-0.055415358394384384,0.4451393485069275,0.05838692933320999,0.14612534642219543,0.1582082360982895,-0.1361747533082962,0.03207579627633095,0.21083374321460724,0.1915670484304428,-0.2426925003528595,-0.06677962094545364,-0.10449820756912231,-0.11500135809183121,-0.18103207647800446,-0.04710179194808006,-0.034657470881938934,0.16085051000118256,0.44290265440940857,-0.10016325861215591,-0.09100209921598434,-0.12592288851737976,0.20805691182613373,0.029448827728629112,0.08098181337118149,-0.06895090639591217,-0.03619411215186119,-0.6300390362739563,0.09336536377668381,-0.20356732606887817,-0.19167539477348328,0.14627410471439362,-0.1789495050907135,-0.5263403058052063,-0.10590864717960358,-0.3159707486629486,0.0010695535456761718,-0.17409835755825043,0.015565072186291218,0.003387197619304061,0.42539116740226746,-0.046075429767370224,-0.17863546311855316,-0.10973015427589417,-0.35352909564971924,-0.10294433683156967,-0.14869369566440582,-0.19587616622447968,-0.5831983685493469,-0.15103153884410858,-0.29125383496284485
},
{
0.05954819172620773,0.09130833297967911,0.04505620524287224,0.1291266232728958,-0.8588465452194214,0.12327806651592255,-0.6645960807800293,-0.1466059535741806,-0.20014381408691406,0.02264532260596752,-0.09204365313053131,0.34763944149017334,-0.07887832075357437,-0.0071424804627895355,-0.0013674775836989284,0.09987474977970123,-0.15434855222702026,-0.2196904718875885,0.1728946417570114,-0.03840622678399086,0.17166705429553986,0.22754225134849548,-0.2973499894142151,0.00428457697853446,-0.05974908545613289,0.1197451576590538,-0.13434453308582306,-0.30540701746940613,-0.23803427815437317,0.029554709792137146,0.09720700234174728,0.004612757824361324,0.055280525237321854,0.05534905567765236,0.22568869590759277,-0.1809973269701004,0.04982033371925354,0.06730597466230392,0.2517494857311249,0.12560823559761047,-0.710801899433136,0.11915945261716843,-0.1781645566225052,0.053487781435251236,-0.07692083716392517,-0.048322368413209915,-0.2876053750514984,0.09332901239395142,-0.09850072860717773,0.21764889359474182,-0.12208735197782516,0.03677820786833763,0.1323583573102951,0.03751209005713463,-0.16886919736862183,-0.03660818561911583,0.01089347805827856,0.09599093347787857,-0.19233518838882446,-0.04812895134091377,-0.17994044721126556,-0.6959018707275391,-0.04750516638159752,-0.15709829330444336
},
{
-0.2676416337490082,-0.13368314504623413,-0.06668078154325485,-0.02483632229268551,0.039888281375169754,-0.21552929282188416,-0.053751036524772644,0.216244637966156,-0.1626274138689041,-0.28568029403686523,0.13573822379112244,-0.19973528385162354,-0.11770039796829224,-0.009594506584107876,0.012937153689563274,0.140764057636261,0.026110470294952393,0.2326216995716095,-0.194160595536232,-0.043774835765361786,0.21965304017066956,-0.2404785305261612,-0.19598573446273804,0.10580623149871826,0.2053636908531189,0.01287032663822174,0.03464359790086746,0.042941972613334656,-0.2028384506702423,-0.09416612982749939,-0.17196153104305267,0.18336674571037292,0.10527610778808594,-0.10848571360111237,0.0024268149863928556,0.04336702823638916,-0.24635909497737885,-0.09631407260894775,0.2295306771993637,-0.09333068877458572,-0.19737546145915985,-0.046782225370407104,0.053842414170503616,0.1936246156692505,-0.2193828821182251,0.230104461312294,-0.16858835518360138,0.17119576036930084,-0.20846781134605408,0.05647552013397217,-0.08339810371398926,-0.25110793113708496,-0.04092710465192795,0.010257585905492306,-0.002320786938071251,0.06575249880552292,0.11842656135559082,0.20183508098125458,-0.1946023553609848,-0.23406213521957397,0.05112995207309723,0.1188185065984726,0.027121543884277344,0.23924124240875244
},
{
-0.7314434051513672,-0.027493027970194817,-0.9362524747848511,0.42206165194511414,0.4087067246437073,-0.11088137328624725,0.01601441763341427,-0.0031561851501464844,-0.16795578598976135,-0.8240395784378052,0.4614868760108948,0.07506120204925537,-0.1230514645576477,0.46154385805130005,-0.7231869101524353,0.2468230128288269,-0.1512908935546875,-0.838262677192688,-0.16924478113651276,-0.10271448642015457,-0.0002458218368701637,-0.83741295337677,-0.6326013207435608,0.22704562544822693,-0.26875022053718567,0.28084495663642883,-0.032183703035116196,0.7008560299873352,-0.47844475507736206,-0.5401011109352112,-0.03480929508805275,-0.008001434616744518,0.00012087594222975895,-0.6583771705627441,-0.1826498955488205,-0.14833948016166687,-0.2788081765174866,0.03036642260849476,-0.280840128660202,-0.09422969818115234,0.8470260500907898,-0.628499448299408,-0.1516241580247879,0.022430429235100746,0.1482812911272049,0.2617158591747284,0.46329134702682495,-0.626750648021698,0.33226248621940613,0.24080759286880493,0.2658749520778656,-0.016787659376859665,-0.12603388726711273,-0.2669870853424072,0.5469754338264465,-0.5102407932281494,-0.05063986778259277,-0.9070245027542114,0.13674882054328918,0.03849002346396446,-0.12307343631982803,-0.49226486682891846,-0.20054364204406738,0.02642291598021984
},
{
0.1179862916469574,0.431126207113266,0.3039869964122772,-0.14468318223953247,-0.5345034003257751,0.574314534664154,0.345073401927948,0.11791875958442688,-0.5003829598426819,-0.31471794843673706,-0.06579367071390152,-0.40119025111198425,-0.03970946744084358,-1.8229751586914062,0.31568342447280884,0.17219504714012146,0.0683901384472847,0.26294395327568054,0.289499431848526,0.25230565667152405,0.20731483399868011,0.3766137957572937,-0.7236717939376831,-0.06690013408660889,0.0496927946805954,-1.0056109428405762,0.1881987303495407,-0.4355980157852173,0.1273578405380249,0.26427018642425537,0.11944122612476349,0.6232712268829346,-0.13842922449111938,0.0904192253947258,-0.2822408378124237,-0.2623837888240814,0.16138863563537598,0.04417025297880173,0.18746207654476166,0.21358898282051086,-0.5011918544769287,-0.11157914251089096,0.2542833089828491,-0.005434113554656506,-0.1371234655380249,-0.03250444307923317,-0.32572343945503235,0.0939720869064331,-0.025030506774783134,0.08379346132278442,0.1524035930633545,-0.0964728593826294,-0.08685146272182465,0.6489024758338928,-0.4823773503303528,0.17747463285923004,-0.03235476836562157,-0.2285872846841812,0.3127443194389343,-0.06005134806036949,0.06734055280685425,0.345227986574173,0.1085263043642044,-0.5783178210258484
},
{
-1.1083813905715942,-0.06122535467147827,-0.06871168315410614,0.05155382305383682,-1.6123112440109253,0.006708811968564987,-0.41211703419685364,0.012473375536501408,0.025971055030822754,0.10267844796180725,0.18375644087791443,-1.1792277097702026,-0.1725606769323349,0.24939028918743134,-0.29459133744239807,0.11569898575544357,-0.19652076065540314,-0.5794830918312073,0.12621383368968964,0.10877364873886108,-0.06124310567975044,0.043789613991975784,-0.0627916231751442,0.2319244146347046,0.38965919613838196,-0.41724449396133423,0.0417105033993721,-0.26969918608665466,0.18261471390724182,-1.426601767539978,0.3446178138256073,0.0246743131428957,-0.21594490110874176,0.006090943235903978,-0.4982449412345886,0.11009751260280609,-1.0914946794509888,-0.2520310580730438,0.24522390961647034,-0.07110955566167831,-0.8057550191879272,-0.15512271225452423,-0.24252542853355408,-0.12823393940925598,-0.1014377698302269,0.08159329742193222,-0.039550043642520905,-0.02385306917130947,0.20227384567260742,-0.08191529661417007,-0.09989789128303528,-0.02155195362865925,-1.5835412740707397,0.4949473738670349,-0.0585077740252018,-0.8121850490570068,0.08944356441497803,-0.42590734362602234,-0.17202462255954742,-0.09526228159666061,0.12400934845209122,0.030059657990932465,-0.12771373987197876,-0.7455359697341919
},
{
0.42871564626693726,-0.005191479343920946,-0.13065892457962036,-0.052935659885406494,-0.7828296422958374,0.0006165055674500763,0.28857913613319397,-0.07081161439418793,-1.3752093315124512,-0.657287061214447,0.17731525003910065,-0.24515363574028015,-0.26750728487968445,-1.0788445472717285,0.17000390589237213,-0.2808699607849121,0.19918303191661835,0.4358181059360504,-0.027032162994146347,-0.15455025434494019,0.12365549057722092,0.24272581934928894,-1.519291877746582,0.16207727789878845,0.0801142230629921,-0.032026506960392,-0.14912046492099762,-0.048881519585847855,-0.7076563239097595,0.3447745144367218,-0.39856311678886414,-0.3840827941894531,-0.062241390347480774,0.09869111329317093,-0.1582856923341751,0.005838749464601278,0.7493047714233398,0.1587059199810028,-0.12343242019414902,0.12104296684265137,-0.5228962302207947,0.32925188541412354,-0.4609784185886383,0.22943918406963348,0.027630934491753578,0.2203834056854248,0.2042340338230133,0.12911172211170197,-0.16984440386295319,-0.09675248712301254,0.040320612490177155,-0.017936570569872856,0.24944940209388733,-1.0083986520767212,-0.35603904724121094,-0.7259339690208435,0.16995762288570404,0.12023714184761047,0.02678559720516205,-0.08383364975452423,0.015463583171367645,-0.3828471601009369,-0.2367696315050125,-0.43957236409187317
},
{
0.1423555165529251,-0.04546056315302849,-0.08695971220731735,-0.04281550645828247,0.2210707813501358,-0.2428136169910431,0.11582497507333755,-0.15253621339797974,-0.17986629903316498,-0.2588990032672882,-0.02513134479522705,-0.008446543477475643,0.2238743156194687,-0.11132113635540009,-0.0828171819448471,-0.164523184299469,-0.0961102843284607,-0.042339570820331573,-0.188689723610878,-0.06876376271247864,0.08353111892938614,-0.30910950899124146,-0.005185866728425026,-0.2129141092300415,0.061319589614868164,-0.26577022671699524,0.08258302509784698,-0.029148221015930176,-0.024245362728834152,0.027116117998957634,-0.22813718020915985,0.0708875060081482,0.21112865209579468,-0.23803041875362396,0.10311979800462723,0.11537830531597137,-0.0031047977972775698,-0.045385874807834625,0.1571362316608429,0.12837553024291992,-0.14807893335819244,0.1526585817337036,-0.09280342608690262,-0.2269849181175232,0.10017037391662598,-0.03992289677262306,-0.08685308694839478,0.09223612397909164,-0.1983727216720581,0.2197723388671875,-0.026958942413330078,-0.1936822235584259,-0.015499093569815159,-0.2565337121486664,-0.2601117491722107,-0.23998744785785675,0.10780346393585205,0.06453491002321243,0.05864761397242546,-0.08721262216567993,-0.011077165603637695,0.0009744285489432514,0.11033797264099121,0.06520644575357437
},
{
-0.10529575496912003,-0.07705558836460114,-0.1543630063533783,0.012149238958954811,-0.0389583483338356,-0.057397712022066116,0.06297379732131958,0.18904411792755127,0.21859164535999298,-0.00546664884313941,-0.062162499874830246,0.14801818132400513,-0.03271991014480591,0.07511838525533676,0.032308414578437805,-0.023472802713513374,-0.19942660629749298,-0.14555887877941132,-0.06865161657333374,-0.40849050879478455,-0.11973512917757034,-0.02399245835840702,0.22015567123889923,0.24427181482315063,-0.11121764779090881,0.12197573482990265,-0.18462111055850983,0.2631520926952362,-0.0828043669462204,0.09473510086536407,-0.1029193177819252,-0.01607023924589157,-0.11578160524368286,-0.27926409244537354,-0.34992796182632446,-0.0425182580947876,-0.21655859053134918,0.05996358394622803,-0.23334115743637085,-0.05335181951522827,-0.1848219782114029,0.029912706464529037,-0.24518704414367676,-0.22039327025413513,0.15436244010925293,-0.0663512796163559,0.09613227844238281,0.022471889853477478,-0.06838370859622955,-0.06584250181913376,0.19063806533813477,-0.2672208845615387,-0.08773618936538696,-0.33111289143562317,0.1805185228586197,-0.30336183309555054,0.07153332233428955,-0.2792557179927826,0.052706342190504074,0.025411486625671387,-0.03529362753033638,0.05955538898706436,0.14623987674713135,-0.14084145426750183
},
{
0.18094630539417267,0.08339516818523407,-0.08713551610708237,-0.059876542538404465,-1.2217673063278198,0.05444042757153511,1.1617237329483032,0.18746064603328705,0.1964276283979416,0.12795862555503845,0.2981463670730591,-0.4479934871196747,-0.04257447272539139,0.11028630286455154,-0.273857980966568,-0.07727756351232529,0.24844107031822205,0.07865878939628601,0.09255607426166534,0.09099673479795456,0.1295854151248932,0.06883007287979126,0.049896493554115295,-0.1391635537147522,-0.09284224361181259,-0.10633071511983871,0.3252125382423401,0.4929049611091614,0.06981682777404785,-0.14909560978412628,-0.10325149446725845,-0.0911780372262001,0.15602076053619385,-0.3228403925895691,-0.4138016104698181,0.020574793219566345,0.11067463457584381,-0.2938745319843292,-0.4709681570529938,-0.10555723309516907,0.22282752394676208,0.07862608879804611,0.11696326732635498,0.0823470875620842,-0.1145683005452156,-0.09964951127767563,0.01931343786418438,0.16174282133579254,0.5199893116950989,-0.15783478319644928,0.17818675935268402,0.14301155507564545,-0.043539974838495255,-0.05940893664956093,0.26955604553222656,-0.19529053568840027,0.07760513573884964,-0.16596536338329315,-0.015363133512437344,-0.07959776371717453,-0.2896447777748108,0.767292857170105,-0.12015557289123535,-0.4819873869419098
},
{
-0.20270298421382904,-0.18967761099338531,-0.3169451653957367,-0.1883007436990738,0.06591108441352844,0.12991443276405334,-0.24812601506710052,0.13332271575927734,-0.1504926234483719,-0.20200344920158386,0.07277122884988785,-0.06826227158308029,0.09503127634525299,0.1848355382680893,-0.26784834265708923,-0.11136730760335922,0.1303660273551941,-0.08586936444044113,0.04297034442424774,0.10231467336416245,0.007444919552654028,0.12786677479743958,-0.1123754158616066,0.046789586544036865,-0.10086194425821304,-0.09700459986925125,0.06041970103979111,-0.12042782455682755,-0.05664434656500816,-0.1916476935148239,0.06770318746566772,0.10130912810564041,-0.021071195602416992,-0.07559410482645035,0.1923634260892868,0.20116229355335236,-0.303742915391922,0.09069657325744629,-0.33042630553245544,-0.00711655430495739,-0.05704610422253609,0.09620217233896255,0.1304083615541458,-0.016364336013793945,-0.20060738921165466,-0.14670643210411072,-0.09175117313861847,-0.31472641229629517,-0.22235731780529022,0.2380182147026062,-0.0639345645904541,0.02496340684592724,0.14518678188323975,-0.045676980167627335,-0.14843685925006866,-0.23083028197288513,0.2267860770225525,0.05495253577828407,-0.003362198593094945,-0.166839599609375,-0.006041467189788818,0.038742080330848694,0.2001495361328125,0.03656001389026642
},
{
-0.18361306190490723,-0.2937166690826416,0.02795095182955265,-0.3450118601322174,-0.2266962230205536,-0.2769734263420105,-0.9571948647499084,-0.05067498981952667,0.5493690967559814,0.648902416229248,-0.1923786699771881,0.6621400713920593,-0.1931764781475067,0.4416481852531433,0.13712646067142487,-0.5863679051399231,0.009625270031392574,0.07816126197576523,-0.2620231509208679,0.2827532887458801,0.06613942980766296,-0.4419271945953369,0.8488332033157349,-0.03756636381149292,-0.1736316978931427,-0.49657657742500305,0.045799627900123596,-0.2573636472225189,0.051582496613264084,-0.24339702725410461,0.2280220240354538,-0.3486296534538269,-0.21102747321128845,-0.08132720738649368,0.670332133769989,-0.21345101296901703,-0.23383930325508118,-0.1352905035018921,0.548328697681427,-0.244838148355484,-0.5397351384162903,-0.3344849944114685,0.4232863187789917,0.11281341314315796,-0.10712230205535889,-0.32438090443611145,-0.23844842612743378,0.17147675156593323,-0.17453782260417938,0.19603398442268372,-0.10080212354660034,-0.32467374205589294,-0.19820530712604523,0.24312229454517365,0.7020193934440613,0.4881078600883484,0.08245450258255005,-0.25716349482536316,0.08493571728467941,0.10914409160614014,0.12290263175964355,-0.18306054174900055,0.08621776103973389,-0.011329786852002144
},
{
-0.2955988943576813,0.1573077142238617,-1.0538079738616943,0.10836214572191238,-0.9639619588851929,-0.10280855745077133,-0.34616756439208984,0.21239803731441498,0.10883203148841858,-0.28867653012275696,0.28484106063842773,-0.24060842394828796,0.18023163080215454,0.308254212141037,-0.22710488736629486,0.1123613715171814,0.1961631029844284,-0.8309247493743896,-0.14418534934520721,0.03906271979212761,-0.16171230375766754,0.3440980017185211,-0.00427968567237258,0.2545667588710785,-0.816425621509552,-0.16046997904777527,-0.0886954665184021,1.0660643577575684,-0.7570911645889282,-1.6407268047332764,0.1508941948413849,-0.21675977110862732,-0.08948463946580887,0.19613893330097198,-0.06784193962812424,-0.15799902379512787,-1.1601516008377075,0.19867852330207825,0.14048714935779572,0.0327058769762516,-0.19212916493415833,-0.3283562958240509,0.14678846299648285,0.09829585254192352,0.20510923862457275,0.11937196552753448,-0.22704358398914337,-0.05142766237258911,0.0021663308143615723,-0.04018073529005051,-0.07354466617107391,-0.5518923997879028,-0.9392952919006348,0.09096834808588028,0.8251664042472839,-0.7079092264175415,0.1345517635345459,-0.4104183614253998,0.15512558817863464,0.18679068982601166,0.13474319875240326,-1.1071085929870605,0.09669223427772522,-0.5376875996589661
},
{
-0.17424698173999786,-0.24391862750053406,-0.12259739637374878,0.017807958647608757,0.002930085640400648,-0.14257504045963287,-0.2634934186935425,0.2111375331878662,-0.23787672817707062,0.06831182539463043,0.06707679480314255,0.060554683208465576,0.10177208483219147,-0.11792679876089096,0.06573937088251114,0.018827952444553375,0.04145854711532593,-0.08510362356901169,-0.1024356335401535,0.062160391360521317,-0.18264521658420563,-0.24520404636859894,-0.0668313056230545,-0.2085767388343811,-0.02126125618815422,0.03374843671917915,-0.13200005888938904,-0.2550475597381592,-0.030473841354250908,-0.16404318809509277,0.010762385092675686,0.11820045858621597,-0.05902806669473648,-0.011868976056575775,0.22373375296592712,-0.18941396474838257,0.05655990168452263,-0.18252776563167572,-0.33755356073379517,0.0930679440498352,-0.22802157700061798,-0.5352365374565125,0.2860872447490692,-0.21035179495811462,-0.22545550763607025,0.09154218435287476,0.026972314342856407,-0.053912363946437836,-0.12895537912845612,-0.0604446716606617,-0.16243597865104675,-0.1555742770433426,-0.23280972242355347,-0.08756644278764725,0.23546123504638672,-0.22450315952301025,-0.22858071327209473,-0.27430394291877747,-0.29840755462646484,-0.20495855808258057,0.15190117061138153,-0.11453180760145187,0.23144161701202393,-0.1044028028845787
},
{
0.5711682438850403,0.06769481301307678,0.3793931305408478,-0.33141186833381653,-0.31941643357276917,0.18021298944950104,-0.05478272959589958,-0.05459226295351982,-0.30742353200912476,-1.2919669151306152,-0.04561179131269455,-1.1222550868988037,0.19961214065551758,-0.9415122270584106,0.24508221447467804,0.1995599865913391,-0.362505704164505,0.2020692378282547,0.15117961168289185,-0.5101340413093567,0.10333669930696487,-0.08487500995397568,-0.19704294204711914,0.10292783379554749,0.36074042320251465,-0.1578974425792694,0.08543077111244202,-0.9943926334381104,-0.093962162733078,0.08871042728424072,-0.3280208706855774,0.19693878293037415,-0.1320285201072693,0.29204151034355164,-0.8235974907875061,0.14314287900924683,0.6859625577926636,0.10415478050708771,0.031982939690351486,0.19222547113895416,-0.321536660194397,0.7372099161148071,0.0644761249423027,-0.10458588600158691,0.10277511924505234,0.26936542987823486,0.22290010750293732,0.04638288915157318,0.1682634949684143,0.06851165741682053,0.17534267902374268,-0.28152838349342346,-0.07222306728363037,-0.027655160054564476,-1.654515266418457,-1.0361733436584473,-0.1791297197341919,0.38535943627357483,-0.023531125858426094,0.11357074975967407,0.17706944048404694,-0.42345887422561646,0.1615920066833496,-0.33195266127586365
},
{
0.19109949469566345,-0.06375782191753387,0.1171194538474083,-0.21251915395259857,0.0915837287902832,-0.03326959162950516,-0.11347044259309769,-0.09310925006866455,-0.2479136884212494,-0.045989323407411575,-0.07542426884174347,0.10024189203977585,-0.10758036375045776,-0.02943730540573597,0.03340202569961548,-0.11119493842124939,0.07596207410097122,0.11353611201047897,0.20881624519824982,-0.05722059682011604,-0.18112356960773468,-0.27513575553894043,-0.2601964473724365,0.005713224411010742,0.12744078040122986,0.07684272527694702,0.10247790813446045,-0.10761003196239471,0.08912055939435959,-0.2106957733631134,-0.1527116745710373,0.03455237299203873,-0.24229615926742554,-0.1661241501569748,-0.3208922743797302,0.19580459594726562,0.19885803759098053,-0.17783915996551514,0.13586021959781647,0.10209745168685913,-0.01028350554406643,0.10136136412620544,-0.19907890260219574,0.001485288143157959,-0.29664263129234314,-0.23010100424289703,0.09915737062692642,-0.006888385862112045,-0.19037242233753204,0.0909070372581482,-0.1125115156173706,-0.12509234249591827,-0.1630759835243225,-0.23877327144145966,-0.2911105155944824,-0.16575932502746582,0.24072325229644775,0.013820668682456017,0.004545965697616339,0.16158676147460938,0.03506439924240112,-0.1536572277545929,0.2416846752166748,-0.2289906144142151
},
{
-0.05371427536010742,0.034760065376758575,0.0499538853764534,0.2328035831451416,-0.8377186059951782,0.08837045729160309,-0.1556541621685028,0.20433513820171356,0.18761377036571503,0.1183314099907875,0.10590860992670059,0.09853824228048325,0.11594732105731964,0.1307281106710434,0.15874724090099335,0.09017404913902283,-0.05054347589612007,-0.013375073671340942,-0.12029077112674713,-0.2814933955669403,-0.019801177084445953,-0.1646946370601654,0.14231377840042114,-0.09675581008195877,0.06671072542667389,0.019529355689883232,0.04861085116863251,-0.596202552318573,-0.013239831663668156,-0.15057256817817688,0.25523439049720764,-0.13136491179466248,-0.2359653264284134,0.02812577225267887,0.0367661751806736,-0.034271012991666794,-0.25038495659828186,0.018975555896759033,-0.005464778747409582,-0.17657972872257233,-0.5179347395896912,-0.0050955661572515965,0.37033548951148987,-0.144721120595932,-0.17731857299804688,-0.20885758101940155,-0.3987729251384735,0.0002595918485894799,0.18422110378742218,-0.0636451244354248,-0.23763783276081085,-0.14573010802268982,-0.10197313129901886,0.2959177792072296,0.12073978781700134,0.20474611222743988,0.24919576942920685,0.08331435173749924,0.2226599007844925,0.25517013669013977,0.014794261194765568,-0.0332280769944191,-0.06088164076209068,-0.49887749552726746
},
{
-0.23587186634540558,0.11419504135847092,-0.2945576310157776,-0.1477142572402954,0.12562985718250275,0.0916832983493805,-0.17112921178340912,-0.2029244303703308,0.0031181550584733486,0.12232016772031784,-0.034994225949048996,-0.06408330053091049,0.11288662254810333,0.0904754102230072,0.16194115579128265,-0.08444598317146301,-0.2051510065793991,-0.19857101142406464,0.007327801547944546,-0.3081890046596527,0.013010275550186634,-0.08556803315877914,0.1615089774131775,-0.2466992735862732,-0.04099477455019951,-0.2941952645778656,-0.2488742172718048,-0.1348736435174942,-0.21160444617271423,0.02438228391110897,0.051098085939884186,0.07667431235313416,0.030596911907196045,-0.14189039170742035,0.2295595109462738,0.16344620287418365,0.1157936230301857,0.047452330589294434,-0.21712464094161987,-0.2156890630722046,-0.20118696987628937,-0.12776897847652435,0.15471158921718597,0.08109849691390991,-0.29934340715408325,0.03694470226764679,-0.1992616057395935,0.17003357410430908,-0.10992205888032913,-0.10644268989562988,0.10745197534561157,-0.2768118679523468,-0.07070189714431763,0.13473442196846008,-0.12687848508358002,-0.2922374904155731,-0.22342205047607422,-0.21783755719661713,-0.016157574951648712,0.1684700846672058,0.16513562202453613,0.09128008782863617,0.2004566192626953,-0.10274281352758408
},
{
-0.21072469651699066,0.06530456244945526,-0.2354401797056198,-0.22560212016105652,-0.11462253332138062,0.11084866523742676,0.1610209345817566,-0.10816055536270142,0.2018287032842636,0.13941870629787445,0.05153694748878479,-0.20775477588176727,0.1415029764175415,0.0188006479293108,0.05821984261274338,0.11663176864385605,0.20027589797973633,-0.2071652114391327,-0.20602715015411377,-0.18419724702835083,0.20866301655769348,0.06097228452563286,0.23010890185832977,-0.15425384044647217,-0.26363903284072876,-0.09421144425868988,-0.27365642786026,0.07580219954252243,-0.11222551763057709,0.08999396115541458,-0.01449829712510109,-0.20996743440628052,-0.1866133213043213,-0.16067266464233398,-0.1528341919183731,-0.010476529598236084,-0.21533961594104767,-0.1964685320854187,0.1947849839925766,0.08663952350616455,-0.12159323692321777,-0.2513585388660431,-0.08817730098962784,0.09663212299346924,-0.1512521207332611,-0.1728234738111496,-0.07809881865978241,-0.15070556104183197,0.14583659172058105,0.040983736515045166,0.2263510823249817,-0.03646637499332428,-0.2497139275074005,0.05377057567238808,-0.16216129064559937,-0.24563859403133392,0.22243326902389526,-0.021290414035320282,-0.20425108075141907,0.22915184497833252,-0.2216668426990509,-0.003743528388440609,-0.20473825931549072,0.10424107313156128
},
{
-0.10231708735227585,-0.24272474646568298,0.21938064694404602,-0.37968990206718445,-0.1892612874507904,0.011862131766974926,-0.22847209870815277,-0.17555269598960876,0.7671387791633606,0.2906586229801178,-1.3541454076766968,0.13242633640766144,0.019399233162403107,-0.07998818159103394,-0.010654301382601261,-0.7001097202301025,-0.24764375388622284,0.16123399138450623,-0.016881955787539482,0.321702778339386,0.1878240406513214,-0.053230855613946915,0.5329188108444214,-0.07888448238372803,-0.35122138261795044,-0.3628760874271393,0.18025998771190643,-0.021107908338308334,0.12137839198112488,0.2148364931344986,0.24600856006145477,0.10418738424777985,0.010522685013711452,0.019806070253252983,0.28582826256752014,-0.15646670758724213,-0.0501399040222168,-0.18269814550876617,-0.1224595233798027,0.22601214051246643,0.06983722001314163,-0.057241011410951614,0.3105200231075287,-0.1846192628145218,0.05688074603676796,-1.0092442035675049,-1.0948809385299683,0.0879620760679245,-1.3068798780441284,-0.25734952092170715,0.07662737369537354,0.09968253970146179,0.17224979400634766,0.3808847963809967,0.05764627829194069,0.2287226915359497,0.09006466716527939,-0.4138357937335968,-0.06867236644029617,-0.17594486474990845,-0.044797297567129135,1.1005393266677856,-0.09199953079223633,0.14566218852996826
},
{
0.011586664244532585,0.00421999953687191,0.14877849817276,-0.35046854615211487,-0.09417884796857834,-0.24219393730163574,-0.48437654972076416,-0.17733007669448853,0.041454464197158813,-0.14563791453838348,-0.41300156712532043,0.4355282187461853,0.049961745738983154,-0.13058122992515564,0.10555693507194519,-0.8588248491287231,7.686251046834514e-05,0.17536164820194244,0.11728984862565994,0.17433828115463257,0.009667517617344856,-0.004045034758746624,-0.25498244166374207,-0.029317080974578857,-0.6267802715301514,0.03766316920518875,0.09660117328166962,0.16684690117835999,-0.027927035465836525,-0.06847009807825089,0.42814186215400696,-0.09865745157003403,0.06867861747741699,0.04963800683617592,-0.036747656762599945,0.043208181858062744,-0.017656419426202774,0.052319783717393875,-0.16949112713336945,-0.2091529369354248,-0.22002799808979034,-0.18404489755630493,-0.9025187492370605,-0.05873572826385498,-0.24571667611598969,-0.5717595219612122,-0.7127521634101868,-0.05331171676516533,-0.6821268796920776,-0.13123595714569092,0.13240545988082886,0.09686769545078278,-0.04733637347817421,0.3291051685810089,-0.4006304144859314,-0.731099545955658,0.092556893825531,0.321281760931015,-0.2343154400587082,-0.17068064212799072,0.11919752508401871,0.1276446282863617,0.0883643627166748,-0.01029282808303833
},
{
-0.038657139986753464,0.09224110841751099,0.08089737594127655,0.05912046879529953,-0.9998197555541992,0.19185520708560944,-0.5743914842605591,-0.0691152811050415,0.04646021127700806,0.10625938326120377,0.11644124239683151,0.11258385330438614,0.08101046085357666,-0.029436275362968445,0.14182604849338531,0.31520703434944153,0.14835374057292938,0.10538867861032486,-0.09189427644014359,0.23683130741119385,0.06360089033842087,0.14145728945732117,0.2969662547111511,0.01538766734302044,0.06237080320715904,0.026036113500595093,-0.1446055769920349,-0.3886392116546631,-0.3560899794101715,-0.03439141809940338,0.13392822444438934,0.13770072162151337,0.008004087954759598,-0.12847380340099335,-0.10332263261079788,0.21332909166812897,-0.07336188852787018,0.2145235389471054,0.48405545949935913,-0.1596047729253769,-0.5820470452308655,-0.11714047193527222,-0.20271112024784088,-0.0741753876209259,0.22541090846061707,-0.38399598002433777,-0.41788971424102783,-0.10058195143938065,-0.1656353771686554,0.17170755565166473,-0.05320419743657112,0.1838752031326294,-0.13187669217586517,0.24514062702655792,0.06875130534172058,-0.18084481358528137,-0.021758252754807472,-0.044728394597768784,0.14332686364650726,-0.02997538447380066,-0.3569634258747101,-0.48838114738464355,-0.010537615045905113,-0.19733448326587677
},
{
0.0498342365026474,0.26445040106773376,-0.057595353573560715,0.11436057835817337,1.4621332883834839,-0.06429185718297958,-0.3216440677642822,-0.10648921132087708,0.5053255558013916,0.2835017740726471,-0.1053427904844284,0.0902380421757698,-0.1861347109079361,0.1453140527009964,0.05617380142211914,0.19388484954833984,0.12594622373580933,0.07309756428003311,0.2200586199760437,-0.0888412818312645,0.1980632096529007,-0.15013620257377625,0.6203636527061462,0.08274032920598984,-0.0888623297214508,0.02594187669456005,0.23064276576042175,-0.8504077196121216,-0.06941351294517517,0.0023016594350337982,0.0494815856218338,0.07443424314260483,0.017209701240062714,-0.09823092073202133,-0.07232941687107086,-0.06474557518959045,-0.20836906135082245,0.2804228961467743,-0.06736049801111221,-0.06033533439040184,0.0373944416642189,-0.538456916809082,-0.16312891244888306,-0.03622063249349594,0.20565026998519897,-0.22403350472450256,-0.06399576365947723,0.02129959873855114,-0.37494856119155884,0.15517093241214752,-0.1328347772359848,-0.04465736448764801,-0.12902237474918365,0.14061273634433746,0.09872596710920334,0.06089535355567932,-0.08348122239112854,-0.5177969336509705,0.14986880123615265,0.01178467832505703,-0.07460881769657135,-0.0423649437725544,-0.16293923556804657,0.5579328536987305
},
{
-0.030975842848420143,0.20202413201332092,0.021567845717072487,-0.8886818289756775,-0.16000276803970337,0.3673507869243622,-0.3909754455089569,0.22154584527015686,0.4257128834724426,0.35603266954421997,-1.5685398578643799,0.07142897695302963,0.039330098778009415,0.3012634515762329,0.18071749806404114,-0.3669583201408386,0.13678361475467682,0.0655675083398819,-0.07562068104743958,0.1853237897157669,-0.1000639945268631,0.1153813973069191,0.36616307497024536,0.22585338354110718,-0.5902611613273621,-0.27058228850364685,0.2690659761428833,-0.08682883530855179,0.19482815265655518,-0.16585500538349152,0.3640233278274536,0.07597321271896362,-0.12711118161678314,0.17848987877368927,0.33262717723846436,0.10489924997091293,-0.17746242880821228,-0.07697737962007523,0.28207600116729736,-0.05586764216423035,0.009920800104737282,0.027132488787174225,0.3313102722167969,-0.14488454163074493,0.005800175480544567,-1.465583324432373,-1.4039160013198853,0.06512604653835297,-1.5430083274841309,-0.20325356721878052,-0.2550351321697235,-0.10198969393968582,-0.06155512109398842,0.5926421284675598,0.18709519505500793,0.3230346441268921,0.26201769709587097,-0.029956581071019173,-0.12262231856584549,-0.05430153012275696,0.09035362303256989,-0.12865550816059113,0.19685903191566467,-0.2670036256313324
},
{
-0.052541542798280716,0.16851724684238434,0.24307508766651154,-0.413516104221344,-0.2766205668449402,-0.09864578396081924,0.12158511579036713,0.07835632562637329,-0.5071886777877808,-0.7965691089630127,-0.6045415997505188,-0.34690845012664795,-0.004125513602048159,-0.23918402194976807,-0.0036205360665917397,-0.3275466561317444,0.013360386714339256,-0.3197644054889679,-0.0028957619797438383,-0.5840069651603699,-0.08932551741600037,0.008847212418913841,0.022646276280283928,0.12345916032791138,0.4173833429813385,-0.2001732438802719,-0.21820445358753204,-0.16820214688777924,0.14925919473171234,-0.26236796379089355,-0.004811933264136314,-0.13522349298000336,-0.04774957895278931,0.13255305588245392,-0.005276449955999851,-0.21742349863052368,0.065471351146698,0.022529320791363716,-0.14421114325523376,0.08086872100830078,-0.1561518907546997,0.007687353994697332,0.13123919069766998,0.21181857585906982,-0.26451846957206726,1.1110913753509521,-0.26925644278526306,0.1547907292842865,0.4045392572879791,0.16928011178970337,0.0924677848815918,-0.1861218810081482,-0.24534067511558533,0.0487862229347229,-0.1577530950307846,0.03665740415453911,-0.2221115231513977,0.3328808844089508,-0.04885740578174591,0.05455845594406128,-0.2664470076560974,0.05782277137041092,0.23532193899154663,-0.1489056944847107
},
{
0.14371231198310852,0.08354512602090836,-0.0010257309768348932,-0.07395698875188828,0.16297534108161926,-0.2478708177804947,0.19949740171432495,0.05032384395599365,-0.2642543613910675,0.19759130477905273,0.025626467540860176,-0.08353859186172485,0.08262328058481216,-0.32305216789245605,0.17846821248531342,-0.10803826153278351,-0.021656453609466553,-0.1847684234380722,-0.21535691618919373,-0.23889446258544922,-0.2501164376735687,-0.14812025427818298,0.1363675892353058,-0.013303637504577637,-0.019252708181738853,-0.11163882166147232,0.013650133274495602,0.23808801174163818,-0.1629234105348587,-0.17675498127937317,0.014888887293636799,0.17740046977996826,-0.015809834003448486,-0.1650981307029724,0.1459411084651947,-0.20435652136802673,-0.16205459833145142,0.029066622257232666,-0.3002193868160248,0.1418793797492981,-0.016139883548021317,-0.020608099177479744,-0.1955868899822235,-0.19424039125442505,0.1755126267671585,0.13188695907592773,-0.07923237979412079,0.03452073037624359,-0.2733616828918457,0.09020686149597168,0.18882548809051514,0.05765405669808388,-0.0969773381948471,0.12498179078102112,0.054787054657936096,-0.29015469551086426,-0.1972900629043579,-0.22721579670906067,0.0017588927876204252,0.012430071830749512,0.21802902221679688,-0.27324002981185913,0.11388146877288818,-0.25446850061416626
},
{
-0.2101091891527176,-0.06104504317045212,0.17903423309326172,-0.7472813725471497,-0.2222546488046646,0.09431938827037811,-0.3802843689918518,-0.1685180813074112,0.847926676273346,0.6072190999984741,-1.494686484336853,0.2122800499200821,-0.0336323119699955,0.4370678663253784,0.025035370141267776,-0.7201433181762695,-0.04727818816900253,0.012666741386055946,0.23029357194900513,0.07318359613418579,0.18838253617286682,0.29770326614379883,0.3984714150428772,-0.016405820846557617,-0.4401152729988098,-0.11695396900177002,-0.23303620517253876,-0.3205887973308563,0.34000951051712036,0.2653020918369293,0.10875346511602402,0.2246667593717575,0.08773733675479889,0.2854268252849579,0.4434509873390198,-0.14216680824756622,-0.08112506568431854,0.014031424187123775,-0.03103816509246826,-0.157260924577713,-0.09949050843715668,0.11308740824460983,0.053593773394823074,-0.1545269787311554,-0.11632906645536423,-1.3580139875411987,-1.1013370752334595,0.18817470967769623,-1.2030394077301025,0.052473362535238266,0.0999164804816246,0.1969946175813675,-0.1630275994539261,0.33553940057754517,0.07731214910745621,0.4845259487628937,-0.18211022019386292,-0.3156755268573761,0.1262357234954834,-0.047220777720212936,0.1646244078874588,0.34214159846305847,0.08425762504339218,0.24815890192985535
},
{
0.10830339789390564,-0.20582376420497894,0.06918446719646454,0.14985400438308716,-0.030959339812397957,0.10342787206172943,-0.04294306039810181,0.009108245372772217,-0.19358418881893158,-0.08411701768636703,-0.021935954689979553,-0.03983664512634277,0.05790901184082031,0.140412837266922,-0.27237290143966675,-0.1781805157661438,0.08450695872306824,-0.1912722885608673,-0.05333865433931351,0.05847959592938423,0.11911731213331223,-0.21420679986476898,0.013401145115494728,-0.14297330379486084,-0.2573472261428833,-0.08599330484867096,0.10094459354877472,0.1245599016547203,-0.06950181722640991,-0.17818593978881836,-0.14467968046665192,-0.05893176794052124,0.16465020179748535,-0.12568943202495575,-0.1960018277168274,-0.10514658689498901,0.13816414773464203,-0.16447478532791138,0.14534670114517212,0.09387964010238647,-0.13389615714550018,0.16438712179660797,-0.2905087471008301,0.1361718773841858,-0.18190604448318481,-0.002056797966361046,-0.2915704548358917,-0.25141268968582153,-0.17283208668231964,-0.16921943426132202,-0.2045643925666809,0.12500976026058197,-0.00623362185433507,-0.07830381393432617,-0.19412606954574585,0.05008073151111603,0.10021543502807617,-0.26886460185050964,0.07818275690078735,0.11223107576370239,0.03138507530093193,-0.16403430700302124,-0.22286003828048706,-0.07408291101455688
},
{
0.1487215757369995,-0.12543468177318573,-0.14771467447280884,-0.21761812269687653,0.17823107540607452,0.17693781852722168,0.09653542935848236,0.0816546082496643,-0.18788740038871765,-0.0777357965707779,0.09016871452331543,0.04818546772003174,0.00962709542363882,-0.06201482564210892,0.08455488085746765,0.003342547221109271,0.008608096279203892,-0.33828702569007874,-0.08468086272478104,-0.27469402551651,-0.2557510733604431,-0.011334634386003017,0.13208989799022675,0.16649627685546875,0.09580644965171814,-0.2057158648967743,-0.12369996309280396,-0.11403076350688934,0.1872754842042923,0.10147011280059814,-0.020303186029195786,0.1759772151708603,0.04317253828048706,0.10043197125196457,0.1534470170736313,0.1624201238155365,0.07010181248188019,-0.23218375444412231,-0.10104406625032425,-0.11423522233963013,-0.10952439904212952,-0.1683027148246765,-0.2974647581577301,-0.07512021064758301,-0.2483917474746704,-0.18495841324329376,0.1364874243736267,-0.31269291043281555,-0.17082522809505463,-0.22479617595672607,-0.20642375946044922,-0.17740851640701294,-0.2129828929901123,-0.21831943094730377,0.01127884816378355,-0.015433341264724731,0.20127767324447632,-0.08764949440956116,0.09881668537855148,0.20498856902122498,-0.19331298768520355,-0.08176939934492111,0.1923983097076416,-0.15669739246368408
},
{
-1.0358366966247559,0.278782457113266,-0.3177337944507599,0.02727733552455902,0.8014061450958252,0.22354303300380707,-0.4009893536567688,0.04423884302377701,0.48992833495140076,0.1894073188304901,-0.23729489743709564,-1.3367483615875244,-0.1798001527786255,0.0872245505452156,-0.34201791882514954,-0.019899465143680573,-0.18167050182819366,-1.011430025100708,0.04572403430938721,-0.0432400144636631,0.15502777695655823,-0.16738532483577728,0.5566348433494568,0.16670049726963043,-0.05364278331398964,0.07162101566791534,0.20643427968025208,-0.5785155892372131,0.27650177478790283,-1.4993257522583008,0.3580303192138672,0.16852205991744995,-0.21460255980491638,-0.19760745763778687,-0.5440221428871155,-0.2133442461490631,-1.1345669031143188,0.06494671106338501,0.18285875022411346,-0.13846519589424133,-0.6406979560852051,-0.6227882504463196,-0.4367026388645172,-0.018238069489598274,0.20592139661312103,0.1077384501695633,0.321999192237854,-0.27684611082077026,-0.147413432598114,-0.17287924885749817,0.00240842392668128,0.0024134928826242685,-1.849562406539917,0.08512470126152039,-0.6318851709365845,-0.6646198034286499,0.006685435771942139,-0.6649217009544373,0.23822054266929626,-0.059103939682245255,-0.038437504321336746,-0.46545833349227905,0.21714770793914795,-0.02753540873527527
}
};



