float Layer2_weights[32][3] ={
{
0.8248292207717896,-0.17530971765518188,0.9548004269599915
},
{
-0.4122250974178314,0.030261855572462082,0.9853816032409668
},
{
0.3364831805229187,0.16249661147594452,-0.643353283405304
},
{
-0.04499071091413498,-0.03504357114434242,-1.5086370706558228
},
{
-1.2877496480941772,-0.115680992603302,-0.035056836903095245
},
{
-0.06415273994207382,0.26845037937164307,-0.8632193803787231
},
{
0.853331446647644,-0.2691834568977356,-0.42619091272354126
},
{
0.7972723841667175,9.148455137619749e-05,0.6831585764884949
},
{
-0.1339019387960434,-0.13568638265132904,-0.032696451991796494
},
{
0.03813066706061363,-1.012526512145996,0.5637280941009521
},
{
-0.28563377261161804,-0.2910957336425781,0.01139897108078003
},
{
0.09132392704486847,-0.3560715317726135,-0.26092684268951416
},
{
0.7980262637138367,0.023901963606476784,0.1722523272037506
},
{
-1.2476129531860352,0.35576415061950684,0.34190666675567627
},
{
0.46172672510147095,0.6391227841377258,0.07540594786405563
},
{
1.0318517684936523,-0.007176216691732407,-0.2613227665424347
},
{
-0.10383310168981552,0.5847450494766235,-0.40073099732398987
},
{
0.20573896169662476,0.49491259455680847,-0.4574549198150635
},
{
0.20239341259002686,0.7093973159790039,-0.10191158950328827
},
{
0.820609450340271,0.035332053899765015,-0.04070105031132698
},
{
1.2193500995635986,0.04760118946433067,-0.1220405176281929
},
{
0.8464545011520386,-0.2643308937549591,-0.7245272397994995
},
{
0.20963020622730255,0.5651581883430481,-0.5479211807250977
},
{
0.5248293876647949,0.6447470188140869,0.35295799374580383
},
{
0.012543520890176296,0.19360855221748352,0.690971314907074
},
{
0.0050084274262189865,-1.750002384185791,-0.3472450375556946
},
{
-0.7762477397918701,0.3414970636367798,-0.7335205674171448
},
{
-0.8012194633483887,0.3234768509864807,0.16288399696350098
},
{
0.963824987411499,0.044875163584947586,-0.48535633087158203
},
{
1.1547578573226929,0.6506550312042236,0.4478568136692047
},
{
-0.21340730786323547,-0.046179451048374176,1.2615785598754883
},
{
0.02669420838356018,0.6156602501869202,-0.043916795402765274
}
};




