float Layer5_weights[4][32] = {
{
-0.39613285660743713,0.5325295925140381,0.1965562254190445,0.3713018000125885,-0.21992851793766022,-0.6987157464027405,-0.29514244198799133,0.6850723624229431,0.6565220355987549,-0.31153443455696106,-0.07151319831609726,0.20786896347999573,0.376325786113739,0.5600730180740356,0.42858386039733887,0.08392702043056488,0.5224372744560242,0.27518486976623535,0.330963134765625,0.2624890208244324,0.12824596464633942,-0.1408202350139618,-0.3621145784854889,0.24196729063987732,-0.17660555243492126,-0.49285948276519775,0.050351209938526154,0.06702976673841476,-0.3500637710094452,0.25179174542427063,-0.3513616621494293,0.34805452823638916
},
{
0.23913919925689697,0.12962305545806885,0.17447111010551453,0.3937295377254486,-0.04731408879160881,0.1789698749780655,-0.4272937476634979,-0.6459689140319824,-0.8656317591667175,-0.05669109523296356,-0.10620433837175369,0.2948048710823059,0.0008470165776088834,-0.6633645296096802,-0.4637676775455475,0.14548704028129578,-0.09614448249340057,0.1909322291612625,0.3360990285873413,-0.002744598314166069,-0.02550702728331089,0.198301762342453,0.4403844475746155,0.2715131938457489,0.11909192055463791,0.23743361234664917,0.18362554907798767,-0.20382744073867798,0.47416946291923523,0.11910052597522736,-0.21898043155670166,-0.533584713935852
},
{
-0.06532809138298035,-0.5633357763290405,-0.2047291249036789,0.04272238910198212,-0.25058045983314514,0.6576880216598511,0.636429488658905,0.10199424624443054,0.30477386713027954,-0.26498228311538696,0.0705714225769043,0.31308120489120483,0.30543044209480286,0.0768013522028923,0.33473649621009827,-0.013675082474946976,-0.4566287398338318,-0.16808189451694489,0.14297817647457123,0.044488128274679184,0.18744707107543945,0.2736676335334778,-0.19686967134475708,-0.23183657228946686,-0.3150169849395752,-0.048344288021326065,-0.31621357798576355,-0.060712605714797974,-0.12891460955142975,0.08806899935007095,-0.3074091970920563,-0.03283029422163963
},
{
0.09510999917984009,-0.04789287969470024,-0.2607160210609436,0.1462458223104477,-0.18699601292610168,0.1571817845106125,0.1028481051325798,-0.6396372318267822,-0.0899113193154335,0.32754218578338623,-0.030304986983537674,-0.23087938129901886,-0.06313688308000565,-0.055349200963974,-0.41739916801452637,0.3177459239959717,0.15248891711235046,-0.0735638365149498,-0.1387479603290558,-0.07559655606746674,-0.043689385056495667,-0.054287638515233994,-0.035771019756793976,-0.36808785796165466,0.5998399257659912,0.19575387239456177,0.053020231425762177,-0.053048908710479736,-0.2196035534143448,0.18187427520751953,-0.29772621393203735,0.6921190023422241
}
};



