float Layer3_weights[64][32] = {
{
0.14166375994682312,0.3286939561367035,-0.0965295135974884,-0.5251955986022949,-0.5947791934013367,0.13394446671009064,0.23619207739830017,-0.0686475858092308,0.22725015878677368,-1.8781695365905762,-0.06897413730621338,-0.01327576395124197,0.11962823569774628,-0.757358729839325,-0.519277036190033,0.3685043454170227,-0.14209210872650146,-0.9113762974739075,-0.5339111089706421,-0.012572922743856907,0.13695873320102692,0.20092551410198212,-0.33084410429000854,0.20421820878982544,-0.5187961459159851,-0.7416371703147888,-0.21305161714553833,-0.45068562030792236,0.15217913687229156,0.19445331394672394,0.49553370475769043,-0.3955455422401428
},
{
-0.023289131000638008,-0.0624377466738224,-0.10001236945390701,-0.31753814220428467,-0.19498129189014435,-0.09764901548624039,-0.2704285979270935,0.17773255705833435,0.17857179045677185,-0.0803314745426178,-0.15614479780197144,0.2377980798482895,-0.27483439445495605,-0.3511674404144287,-0.19028614461421967,-0.2882613241672516,-0.13928475975990295,0.3503245711326599,0.07765031605958939,-0.012675967998802662,-0.335237979888916,0.11496379226446152,-0.16761046648025513,-0.34791961312294006,0.09013675153255463,-0.4168473184108734,-0.1615205705165863,0.1510690450668335,0.178238183259964,0.03224654495716095,-0.3649737238883972,0.10780981928110123
},
{
-0.06210599094629288,-0.302735298871994,-0.3400055170059204,-0.367565780878067,-0.5480024814605713,-0.12427252531051636,-0.392814964056015,0.14994630217552185,0.16426247358322144,-0.6591942310333252,-0.023085415363311768,0.24249739944934845,0.1134444922208786,0.16709579527378082,-0.14144693315029144,-0.052122097462415695,-0.9492888450622559,-0.8437929749488831,-0.09641765803098679,0.39763081073760986,-0.08975441753864288,-0.5961481332778931,-0.3259007930755615,0.25754034519195557,-0.31623291969299316,-0.8965103626251221,0.5929686427116394,0.20551514625549316,-0.284271240234375,0.42271026968955994,-0.2740584909915924,-0.3254854083061218
},
{
-0.5012325048446655,-0.36710041761398315,-0.003369841957464814,-0.20569868385791779,0.5218946933746338,-0.03133685886859894,-0.27121928334236145,-0.6663146018981934,0.21990489959716797,0.12158872932195663,0.2436346411705017,0.022334378212690353,-0.3635030686855316,0.3325379192829132,-0.6023871898651123,-0.3440265655517578,-0.1005564033985138,-0.026402132585644722,-0.16667790710926056,-0.09417944401502609,-0.7145733833312988,-0.5333040356636047,-0.03821417689323425,-0.11523278057575226,-0.19042570888996124,-1.5378690958023071,-0.24075745046138763,0.11986766010522842,-0.17532768845558167,-0.3877941071987152,-0.22881841659545898,-0.10000549256801605
},
{
-0.5457828044891357,-1.5249671936035156,-0.31979528069496155,-0.034491684287786484,0.5224533081054688,-0.03761863708496094,0.12543267011642456,-0.4934673011302948,0.10299335420131683,0.5048174262046814,0.04805868864059448,-0.16091936826705933,-0.6967319846153259,-0.7675607800483704,-0.009692725725471973,-0.29136714339256287,-0.19450199604034424,0.21139782667160034,0.023024797439575195,-0.48006120324134827,-1.2932077646255493,0.28092125058174133,-0.4821620285511017,-1.470876932144165,-0.17465467751026154,1.379562497138977,-0.48139703273773193,-0.7910585403442383,-0.17597657442092896,-1.6709542274475098,-1.2878377437591553,-0.44311243295669556
},
{
-0.06968903541564941,-0.41044488549232483,-0.346735417842865,-0.5413932800292969,-0.25442391633987427,-0.02351667545735836,-0.05338389426469803,-0.12779022753238678,-0.07544703781604767,-0.4689284563064575,-0.06193727254867554,0.16544371843338013,0.05116414278745651,0.04869959130883217,-0.0801202803850174,0.12532374262809753,-0.3646693527698517,0.3332644999027252,-0.1951824277639389,-0.23278994858264923,-0.6037949919700623,0.1303033083677292,-0.4536133110523224,-0.04956670105457306,0.11956004053354263,-0.7785176038742065,-0.03679419681429863,-0.13201799988746643,0.16647009551525116,-0.10450800508260727,-0.39384737610816956,-0.1181415393948555
},
{
-0.3337354362010956,-0.836190402507782,0.274358868598938,-0.44020575284957886,-0.8344314694404602,-0.3259733021259308,0.2113342583179474,-0.026809506118297577,-0.18410882353782654,-3.412099838256836,0.020264387130737305,-0.1788153052330017,0.12357049435377121,-0.1941898912191391,0.1454109102487564,0.23581446707248688,0.536182165145874,0.6441676616668701,0.368008553981781,0.08111255615949631,0.6117352247238159,-0.01793043687939644,0.10569792240858078,0.2303466498851776,-0.22082582116127014,0.24711722135543823,-0.5228119492530823,-0.04105602204799652,0.4057258069515228,0.21221399307250977,-0.9915672540664673,-0.031084571033716202
},
{
-0.1060752272605896,0.08902973681688309,-0.18853677809238434,0.0659099593758583,-0.08736101537942886,-0.2007424384355545,0.06866306066513062,0.11242402344942093,0.1910105049610138,-0.14175905287265778,0.18668818473815918,-0.14924460649490356,-0.2770305573940277,-0.13035254180431366,-0.10849744081497192,0.13071949779987335,-0.10472714900970459,0.10388416051864624,-0.24373650550842285,-0.030359748750925064,0.12828615307807922,0.0038488616701215506,-0.20700599253177643,0.17733117938041687,0.009207588620483875,0.012769047170877457,0.14357565343379974,-0.1270013153553009,-0.09681569039821625,-0.10690482705831528,-0.14575916528701782,-0.0021545488853007555
},
{
0.33067527413368225,-0.37530091404914856,-0.40533646941185,0.018406420946121216,-0.528488039970398,-0.22426986694335938,0.26955321431159973,0.1481340080499649,0.12527891993522644,-0.11508262902498245,0.2238582968711853,-0.1601957529783249,-0.009538971818983555,-0.03032624162733555,-1.1735281944274902,0.4067506790161133,0.15927481651306152,-0.23968085646629333,-1.9374324083328247,0.07784591615200043,0.20820274949073792,0.5985046625137329,-0.7724647521972656,-0.28936368227005005,-0.4275573194026947,0.7256413698196411,-0.32334163784980774,0.0907655656337738,-0.11339308321475983,-0.148584246635437,0.03312961757183075,-1.5634527206420898
},
{
0.6757608652114868,0.9736547470092773,0.008738312870264053,-0.1277458816766739,0.004236019216477871,-0.6530318260192871,0.10301034152507782,0.5828694701194763,0.12926383316516876,0.3580380082130432,0.1717313528060913,0.12748241424560547,0.3164828419685364,0.23041602969169617,0.2627936005592346,-0.23106122016906738,-0.7414602637290955,-0.3742203414440155,0.06160799413919449,-0.08675040304660797,0.28085166215896606,-0.024387119337916374,-0.1656578630208969,-0.06607216596603394,0.2677941918373108,-0.3176794946193695,-0.2652503550052643,0.5764654874801636,-0.1584032028913498,0.2109980434179306,1.203566312789917,0.1002170741558075
},
{
-0.5161527991294861,-0.06648626923561096,-0.0724915936589241,-0.38302022218704224,0.49325031042099,0.060661982744932175,-0.6375831961631775,-0.5458908081054688,0.1804245412349701,0.40528222918510437,0.14674800634384155,0.09072589874267578,-0.2735272943973541,0.4579874873161316,-0.7862666845321655,-0.22207491099834442,-0.08301888406276703,-0.08213817328214645,-0.09731458127498627,-0.3199106454849243,-0.9827341437339783,-0.7225349545478821,-0.37000158429145813,-0.058418311178684235,-0.378793329000473,-2.03218674659729,-0.1331571340560913,-0.004905110690742731,-0.36199113726615906,-0.21165218949317932,-0.060447271913290024,0.17059198021888733
},
{
-0.38299429416656494,-0.8522675037384033,0.2777036428451538,0.5469562411308289,-1.2847551107406616,0.13789622485637665,0.2219708114862442,-0.3784511387348175,0.08278635889291763,-1.5919251441955566,-0.24809002876281738,0.02762412838637829,0.07127512991428375,-0.8054389357566833,-0.11769812554121017,0.11903396993875504,-0.42302486300468445,-0.2473909705877304,0.2269170880317688,0.15730838477611542,0.20521140098571777,0.5280036330223083,0.3628256022930145,-0.15546362102031708,-0.3151302635669708,-0.8260482549667358,0.06711403280496597,-0.4239535927772522,0.37638235092163086,-0.10639765113592148,-1.2776552438735962,0.2379806488752365
},
{
0.006337897386401892,-0.17849379777908325,-0.02730405516922474,0.17695409059524536,0.18442441523075104,-0.05320111662149429,0.1961764097213745,0.07599317282438278,0.019768016412854195,0.029967933893203735,-0.07420158386230469,-0.11753600835800171,-0.29758384823799133,-0.31043699383735657,-0.17472806572914124,0.040245361626148224,0.06885701417922974,0.08068084716796875,-0.21746911108493805,-0.3241673409938812,-0.01814836636185646,-0.0059165358543396,0.05914478003978729,0.04337581619620323,-0.0013822467299178243,-0.11709684878587723,-0.1712253987789154,2.0178977138129994e-05,-0.18768419325351715,0.039213381707668304,0.11639374494552612,0.16866551339626312
},
{
0.5966124534606934,0.7113749384880066,-0.05089100822806358,-0.3414638936519623,0.6074780821800232,-0.9241420030593872,-0.7746974229812622,0.634736180305481,-0.06635785102844238,0.6197550296783447,0.1633651852607727,0.11157292127609253,0.18045048415660858,0.42669811844825745,0.3621186316013336,-0.5475426316261292,-0.9909509420394897,-1.017301321029663,0.30806928873062134,0.22740156948566437,-0.011659407988190651,-1.973711609840393,-0.19669993221759796,-0.04395274072885513,0.25272336602211,-2.329728364944458,-0.4498184025287628,-0.14046357572078705,-0.5122126340866089,-0.06179076060652733,1.1154048442840576,0.04375845938920975
},
{
-0.04172716289758682,0.4158392548561096,-0.2391488254070282,0.038347791880369186,-1.0564830303192139,-0.26952502131462097,0.003120230510830879,-0.20766867697238922,-0.21348993480205536,-0.3978865444660187,0.24848347902297974,-0.2323693335056305,-0.17565934360027313,-0.011350279673933983,-0.16369442641735077,-0.22853432595729828,-0.7136461734771729,-1.116247534751892,-0.19234293699264526,-0.06294957548379898,-0.3176652193069458,0.0521295890212059,-0.3466942608356476,0.3443494737148285,-0.1607503741979599,-1.1541173458099365,-0.17550279200077057,0.004164509475231171,-0.168255016207695,0.16599979996681213,0.3316119611263275,-0.03337294980883598
},
{
-0.7060028910636902,-0.5573825836181641,-0.45373091101646423,-0.580852746963501,0.02309747412800789,0.2717728912830353,-0.0264799352735281,-1.0775145292282104,0.0753454864025116,-0.025413688272237778,-0.20472466945648193,-0.13172440230846405,-0.29154786467552185,0.1490163803100586,-1.3310439586639404,-0.1600581854581833,-0.24534237384796143,-0.042689014226198196,-0.061495181173086166,-0.1451004147529602,-0.9956312775611877,-0.05305510759353638,-0.08130016922950745,-0.03814137727022171,0.110696941614151,-1.3281556367874146,0.046257201582193375,0.5586923956871033,0.13942347466945648,-0.3232860863208771,-0.9842521548271179,0.24388210475444794
},
{
-0.12832240760326385,0.23927856981754303,0.17040471732616425,0.2290583699941635,-0.8360447287559509,-0.102728933095932,0.12181607633829117,-0.18801529705524445,-0.044424209743738174,-0.2272695153951645,-0.2460840344429016,-0.16131839156150818,0.0923047885298729,-0.09722854197025299,-0.4840961694717407,0.08115842938423157,-0.3764142394065857,-0.23944978415966034,0.01916901208460331,0.1544918417930603,-0.22548802196979523,0.09414844214916229,-0.10726518929004669,0.16586518287658691,0.05987360700964928,0.11998947709798813,-0.03383661061525345,-0.008634259924292564,0.04832595959305763,-0.15418913960456848,0.02806057035923004,-0.023352112621068954
},
{
-0.09215985238552094,0.3167382776737213,-0.3334977626800537,0.047134894877672195,-1.0964627265930176,-0.1398366540670395,-0.02592100203037262,-0.026143869385123253,0.11783750355243683,-1.0899162292480469,0.18763738870620728,-0.07708785682916641,0.1212361603975296,0.24886810779571533,-0.30870935320854187,0.1981782615184784,-0.7650379538536072,-1.4361538887023926,-0.7554277181625366,-0.030018532648682594,-0.0036320637445896864,0.2694544494152069,-0.29836422204971313,0.19400213658809662,-0.6487598419189453,0.14090685546398163,-0.24686887860298157,0.18030358850955963,0.06041935831308365,0.2909720540046692,0.6970871090888977,-0.6836221814155579
},
{
-0.15081743896007538,-0.279826819896698,-0.3801276385784149,-0.28943905234336853,-0.3028317391872406,-0.04146312177181244,-0.40415874123573303,0.09861338883638382,0.05551905557513237,-0.20515745878219604,0.128739595413208,-0.1990322768688202,-0.026361718773841858,0.04703278839588165,-0.30033835768699646,-0.33418646454811096,0.40575939416885376,-0.004819744266569614,-0.20646347105503082,-0.3659457266330719,-0.13826163113117218,0.23376215994358063,-0.06543604284524918,0.018033793196082115,-0.14936813712120056,-0.5951850414276123,0.22959642112255096,-0.23140929639339447,-0.21204711496829987,0.17662860453128815,-0.2676423192024231,-0.1584971398115158
},
{
0.11567723751068115,0.10506308823823929,-0.1303861141204834,0.2889171242713928,-0.6255461573600769,-0.21113763749599457,0.008152330294251442,-0.2079414427280426,0.2649803161621094,-0.030804850161075592,0.03443807363510132,-0.14374567568302155,-0.14365939795970917,-0.028641188517212868,-1.0484392642974854,-0.2544527053833008,-0.28909897804260254,-0.4910966455936432,-0.401494562625885,-0.41771551966667175,-0.47594329714775085,-0.10791453719139099,-0.445462703704834,-0.08280505239963531,-0.6634740233421326,-1.1281070709228516,-0.1045314222574234,-0.0421287938952446,0.039148081094026566,0.1846589893102646,0.31702718138694763,-0.20193341374397278
},
{
-0.12284479290246964,-0.1552109271287918,-0.26349031925201416,-0.14977170526981354,-0.1695447713136673,0.07128237932920456,-0.0008643217734061182,-0.11231861263513565,0.03240455687046051,-0.16683721542358398,0.1928279995918274,-0.12166452407836914,-0.17286427319049835,-0.21440006792545319,-0.32497167587280273,0.11744807660579681,-0.0930396020412445,-0.09342896938323975,-0.14002910256385803,-0.18163849413394928,-0.30897852778434753,0.02973804622888565,0.09807737171649933,-0.05885884538292885,-0.06086818501353264,0.3076210021972656,0.052453670650720596,0.19036471843719482,-0.11134033650159836,0.07907143235206604,0.10697128623723984,0.05492950603365898
},
{
-0.041236650198698044,-0.3550899624824524,0.19022399187088013,-0.039253443479537964,-0.37718290090560913,-0.15684056282043457,0.23040467500686646,-0.16827267408370972,0.17399939894676208,-0.2072119563817978,-0.1975511908531189,0.10508633404970169,0.09878584742546082,-0.49290141463279724,-0.08606718480587006,0.15278564393520355,0.04901978373527527,0.19785743951797485,-0.294210821390152,0.054532259702682495,-0.439960777759552,0.20093484222888947,0.00037733514909632504,0.04724931716918945,0.03234300762414932,-1.4001973867416382,-0.41651588678359985,-0.36925825476646423,0.10701800882816315,0.4286164939403534,-0.19812937080860138,0.036108653992414474
},
{
0.39504653215408325,-0.4300439655780792,0.012707090005278587,0.3155305087566376,-0.3758225739002228,-0.45891156792640686,0.6028769016265869,0.4026261568069458,0.10006189346313477,0.2992495596408844,0.08842921257019043,-0.13107308745384216,0.05269099026918411,-0.31398940086364746,-1.4036544561386108,0.43283724784851074,-0.2259867638349533,-0.18810363113880157,-1.5819507837295532,-0.0019277941901236773,0.24627117812633514,0.26671862602233887,-0.490995854139328,-0.12952902913093567,-0.7840787768363953,0.6784512996673584,-0.1378478854894638,-0.3601040840148926,0.2720586061477661,-0.1635606288909912,-0.28421613574028015,-1.4308749437332153
},
{
-0.06728605926036835,0.11046606302261353,0.21309709548950195,-0.17391224205493927,-0.10318223387002945,0.06833134591579437,0.05405578389763832,-0.23466795682907104,0.23197905719280243,0.09119711816310883,0.22667324542999268,0.16732412576675415,0.21618881821632385,-0.0375010184943676,-0.18079817295074463,-0.1520214080810547,-0.0508347749710083,0.18988406658172607,0.0009851455688476562,-0.20766380429267883,-0.14255988597869873,-0.20696939527988434,0.14242875576019287,-0.259435772895813,-0.15890534222126007,-0.08531906455755234,0.05547609552741051,-0.13909880816936493,-0.21157720685005188,-0.080035001039505,-0.05669403821229935,0.215432807803154
},
{
0.4620268642902374,0.2794724404811859,0.16183654963970184,-0.6404544711112976,0.5390229225158691,-0.45478108525276184,0.21006213128566742,0.44487646222114563,-0.1752154380083084,-1.0159990787506104,-0.013621091842651367,0.08603575825691223,0.08241749554872513,-0.39766690135002136,0.11240921914577484,0.42156553268432617,0.5770086050033569,0.30497124791145325,0.12583371996879578,-0.0032404919620603323,0.3747580945491791,0.16066302359104156,0.3198374807834625,0.016772974282503128,0.22634148597717285,0.5788766145706177,-0.07451949268579483,-0.01597513072192669,0.2632320523262024,0.3554004728794098,0.19249528646469116,0.22791779041290283
},
{
-0.16630400717258453,-0.8863123059272766,0.231809601187706,-0.3309107720851898,0.3655984699726105,-0.014048482291400433,-0.22659093141555786,0.16988429427146912,-0.0865079015493393,0.2348271906375885,0.1470334529876709,0.18557752668857574,-0.01151173748075962,-0.3085751533508301,0.2571219205856323,0.0580584891140461,-0.3617111146450043,0.3602527976036072,0.6380747556686401,0.12498597055673599,0.4970024526119232,0.1660831868648529,0.6571423411369324,0.13808412849903107,0.07748260349035263,1.1889013051986694,-1.621698021888733,-0.39567217230796814,0.20859944820404053,-0.10373146831989288,-1.4236469268798828,0.06973976641893387
},
{
-0.030627930536866188,-0.1269618421792984,-0.056039195507764816,-0.46449384093284607,-0.26459577679634094,0.01499150600284338,-0.30708229541778564,0.16558128595352173,0.2229340374469757,0.0003005057806149125,-0.10743832588195801,-0.14130191504955292,-0.2976139783859253,0.07014983892440796,-0.05052484944462776,-0.12185168266296387,0.38025930523872375,0.12110961973667145,0.046431537717580795,0.0768294557929039,-0.5794578194618225,-0.3322838246822357,-0.20455123484134674,0.03490091860294342,-0.029082372784614563,-0.5098162889480591,-0.28807979822158813,-0.011575713753700256,0.025852466002106667,-0.024279965087771416,-0.3037877678871155,-0.11639777570962906
},
{
-0.218989759683609,0.12799890339374542,-0.06422270089387894,-0.3346194326877594,0.35108575224876404,-0.12767864763736725,-0.8130693435668945,-0.8655461668968201,-0.004393524490296841,0.44692832231521606,-0.19006794691085815,-0.06944704055786133,-0.7373162508010864,0.3557983636856079,0.06823727488517761,-1.0902214050292969,0.06126652657985687,0.08032725006341934,0.02100655622780323,-1.0430688858032227,-0.1139657199382782,-0.6598114967346191,-0.6730743646621704,-0.23457376658916473,-0.47494620084762573,-1.9104641675949097,-0.10930749773979187,0.1505541205406189,-1.3051388263702393,-0.7689420580863953,-0.21348321437835693,-0.10031583160161972
},
{
-0.5603199601173401,0.05005358159542084,-0.07136914134025574,0.8848682045936584,-0.8299692273139954,0.47466838359832764,-0.6676857471466064,-0.8175637125968933,-0.048694297671318054,-0.7607628107070923,0.2270815372467041,0.06187095865607262,-0.3070754408836365,0.2827899158000946,-0.2635871469974518,-0.17795772850513458,-0.0647585391998291,-0.15347807109355927,-0.41812217235565186,-0.34024694561958313,-0.6818445920944214,-0.35117432475090027,0.18818429112434387,0.20925801992416382,-0.2536020278930664,-0.5887342691421509,0.0339878648519516,0.09862255305051804,0.07906432449817657,0.08962751179933548,-0.16308575868606567,-0.019298914819955826
},
{
0.23539623618125916,0.4142988920211792,0.1246185451745987,0.13894981145858765,-0.8411204218864441,-0.15478451550006866,0.14415141940116882,0.1828625202178955,0.14247868955135345,-1.091591238975525,0.1530434489250183,-0.057930223643779755,0.16420695185661316,-0.33532413840293884,0.1949630230665207,0.43536555767059326,-0.7841684222221375,-1.0079846382141113,-0.05060930922627449,-0.01924067549407482,0.5700061321258545,0.1614726185798645,-0.07092522084712982,0.26940950751304626,-0.28729453682899475,0.7801828384399414,-0.3706912398338318,-0.4355529546737671,0.36958423256874084,0.4243465065956116,0.8364876508712769,0.04010692611336708
},
{
-0.2629627287387848,0.14673149585723877,-0.28327158093452454,-0.6808454990386963,-0.6586883068084717,-0.14104031026363373,-0.16104264557361603,-0.425635427236557,0.25820392370224,0.32016241550445557,-0.16432219743728638,-0.1811751425266266,-0.5013015866279602,0.39680999517440796,-0.25656190514564514,-0.08617094159126282,0.12694589793682098,0.13338302075862885,-0.34299781918525696,-0.11614925414323807,-0.9252649545669556,-0.08804339915513992,-0.31277963519096375,0.18471302092075348,-0.16322927176952362,-1.05372953414917,-0.0912868082523346,0.34780576825141907,-0.29968804121017456,0.11947515606880188,-0.09336581826210022,0.17422646284103394
},
{
-0.20938901603221893,-1.0153905153274536,-0.22821390628814697,-0.4258144795894623,-0.19899503886699677,-0.38873156905174255,-0.11779195070266724,-0.48686841130256653,-0.006929345428943634,-0.08324066549539566,0.2456507682800293,0.15327763557434082,-0.14143851399421692,0.007366612087935209,0.009907230734825134,-0.039521507918834686,-0.05333283916115761,0.3216930031776428,-0.05324145033955574,-0.37710824608802795,-0.6591004729270935,-0.1592729240655899,-0.21158042550086975,-0.017733730375766754,-0.02690519392490387,-0.6312313675880432,0.11365238577127457,-0.02616853080689907,-0.02492564357817173,0.0038218984846025705,-0.9652832746505737,-0.07178760319948196
},
{
0.20879054069519043,-0.16563795506954193,-0.06126648187637329,-0.06587909162044525,-0.08998265117406845,-0.1254846304655075,0.018679864704608917,0.03335641697049141,0.004900341387838125,0.06423675268888474,0.01549673080444336,-0.2461029291152954,-0.014440719969570637,0.023256713524460793,-0.010263979434967041,-0.12966610491275787,-0.09169983863830566,0.15505492687225342,-0.23866331577301025,-0.25802376866340637,-0.03791724517941475,-0.17800533771514893,0.21577739715576172,-0.08077892661094666,-0.2297542691230774,-0.21355454623699188,0.19209687411785126,0.06991526484489441,-0.1513654738664627,-0.16955776512622833,0.09470105916261673,-0.05197227746248245
},
{
0.09376461058855057,-0.21111248433589935,-0.010192747227847576,0.18288521468639374,-0.6152915954589844,-0.04157309979200363,-0.41184574365615845,-0.15652327239513397,-0.15043774247169495,-0.24688127636909485,-0.21272844076156616,-0.22028721868991852,-0.0066198487766087055,-0.17491455376148224,-0.3579626679420471,-0.2201695740222931,-0.5660476684570312,0.09840430319309235,-0.18565618991851807,-0.0302705280482769,-0.573407769203186,0.05885518714785576,-0.12715771794319153,-0.011311795562505722,0.14384326338768005,-1.0404973030090332,-0.43228599429130554,-0.26597869396209717,0.02386006899178028,0.11863663792610168,-0.3800567090511322,-0.08954783529043198
},
{
-0.536178708076477,-0.9294436573982239,0.05999801307916641,0.7471067309379578,-1.903610348701477,0.18094684183597565,0.04055040329694748,-0.1652880162000656,-0.18182405829429626,-1.654911756515503,-0.09879708290100098,0.19931840896606445,0.23315168917179108,-0.2665272355079651,-0.1303333044052124,0.05222906172275543,0.09265550225973129,-0.004132235422730446,-0.07728896290063858,-0.27675822377204895,0.07097084820270538,0.2121739238500595,0.32417094707489014,-0.12029597908258438,-0.40415140986442566,-1.3580063581466675,0.13229478895664215,-0.22523316740989685,0.3126218318939209,-0.027598390355706215,-1.057889461517334,0.2520177364349365
},
{
-0.2823641300201416,-0.06513971090316772,0.11294426023960114,0.10331584513187408,-0.17490683495998383,-0.14632362127304077,-0.07338714599609375,0.14286170899868011,0.12755562365055084,0.0791163370013237,-0.09283900260925293,0.03237944841384888,-0.2855891287326813,0.1402857005596161,0.12603549659252167,-0.21094708144664764,-0.09856594353914261,-0.2337285280227661,-0.04590584337711334,-0.31685513257980347,-0.13403268158435822,0.11915022134780884,-0.258000910282135,-0.009428192861378193,-0.16419073939323425,-0.17622503638267517,-0.09325496107339859,0.12461566925048828,-0.046324409544467926,0.1629772037267685,0.06557175517082214,0.0038711384404450655
},
{
-0.004207101184874773,-0.06728838384151459,-0.28280550241470337,-0.06443232297897339,-0.7106164693832397,-0.10090998560190201,0.2524113059043884,0.026305507868528366,0.30862247943878174,-2.2982912063598633,-0.18602067232131958,-0.09121598303318024,-0.150229349732399,-1.1622377634048462,-0.8687912225723267,0.45380276441574097,-0.8274734020233154,-0.9067700505256653,-0.5438068509101868,-0.11682915687561035,-0.01475556381046772,0.43892914056777954,-0.32783275842666626,0.18181666731834412,-0.5515844225883484,1.6952836513519287,-0.004786813631653786,-0.5080991387367249,0.2554551362991333,0.2724605202674866,0.09947884827852249,-0.5240470767021179
},
{
0.16826902329921722,-0.1561891883611679,-0.2644982635974884,-0.07654623687267303,0.05732952058315277,0.03365062177181244,-0.16288845241069794,-0.1433846354484558,-0.211215078830719,-0.26417961716651917,-0.0927729606628418,0.2436051368713379,-0.031730905175209045,0.07426311075687408,0.09665220975875854,0.09760380536317825,-0.20265500247478485,-0.03938303142786026,0.16979190707206726,0.21243438124656677,-0.12561994791030884,0.08552657812833786,-0.09296370297670364,-0.003922587260603905,-0.13831306993961334,-0.02772468887269497,0.19768798351287842,-0.1494007110595703,-0.11762498319149017,-0.174495667219162,0.05295943841338158,-0.2217572033405304
},
{
-0.18487291038036346,-0.8486294150352478,0.04553375020623207,-0.7756894826889038,0.0658620074391365,-0.304573655128479,0.23452655971050262,-0.30053842067718506,0.09569597244262695,-0.1948525607585907,0.06124776601791382,-0.04298285394906998,-0.40080496668815613,-0.5013320446014404,0.015848433598876,-0.1962384134531021,0.1839526742696762,0.31466448307037354,-0.2227814942598343,-0.42592743039131165,-0.4732929468154907,-0.19028611481189728,-0.36833518743515015,-0.02411779761314392,0.2560754418373108,-1.2996392250061035,0.08201827108860016,-0.36017078161239624,0.13772277534008026,0.19926132261753082,-1.1022628545761108,0.18985407054424286
},
{
-0.007729816250503063,-0.18712006509304047,0.031134674325585365,-0.1839158535003662,0.04766548424959183,-0.04467517137527466,0.028636109083890915,0.08027701079845428,0.04537498950958252,-0.15220928192138672,0.07534635066986084,0.06707054376602173,0.18732686340808868,0.21886077523231506,0.011592086404561996,-0.26421064138412476,0.23742294311523438,-0.12083657830953598,-0.14202390611171722,0.17826318740844727,0.09335187077522278,-0.1796627938747406,0.04364899545907974,-0.042810115963220596,-0.040954843163490295,-0.19847546517848969,0.06153503805398941,0.01481108833104372,0.18325497210025787,-0.2553245723247528,-0.16790468990802765,-0.09046542644500732
},
{
-0.5135307312011719,0.31843116879463196,0.028864959254860878,-0.6441711187362671,0.6883869171142578,0.003677245695143938,-0.3105355203151703,-0.8587986826896667,0.19280752539634705,0.4864913821220398,-0.08891880512237549,-0.12792277336120605,-0.696495771408081,0.47931796312332153,0.10740399360656738,-0.8284251093864441,0.0357067845761776,0.024866193532943726,-0.15521936118602753,-0.5837531685829163,-0.1902691125869751,-0.6377027630805969,-0.39994746446609497,-0.4083041846752167,-0.07958251237869263,0.8728697896003723,-0.7514259815216064,0.17126807570457458,-0.3290679454803467,-0.7639408111572266,0.14080701768398285,-0.09502330422401428
},
{
-0.08287820965051651,-0.25308388471603394,0.10881537944078445,0.7868990302085876,0.3508928716182709,0.3062452971935272,-0.327727347612381,-0.1161307692527771,-0.16920797526836395,0.008008614182472229,-0.005112707614898682,-0.14271417260169983,-0.1463836431503296,0.7237359881401062,0.11434322595596313,-0.9056428074836731,-0.3168639540672302,-0.09572404623031616,0.15083172917366028,-0.24664171040058136,0.4066559076309204,0.16854485869407654,-0.042742177844047546,-0.2674083709716797,-0.08315445482730865,1.1472073793411255,0.4500468671321869,0.1980244219303131,-0.07378026843070984,-0.39269593358039856,-0.13265368342399597,-0.15584038197994232
},
{
-0.5927971005439758,-0.3836717903614044,-0.44263768196105957,-0.26002100110054016,-0.7273471355438232,0.3981330692768097,0.038845501840114594,-0.6100928783416748,0.04626970365643501,-0.897662341594696,0.02422243356704712,0.07778649032115936,-0.4410991370677948,-0.22266697883605957,-1.0929834842681885,0.09634817391633987,-0.44544729590415955,-0.5736363530158997,-1.465385913848877,-0.23045438528060913,-0.09183605760335922,0.31802138686180115,-0.13810448348522186,-0.0963193029165268,-0.022196350619196892,-0.7888560891151428,0.09233400225639343,-0.4008302092552185,-0.09670396149158478,0.08669441193342209,-0.0566411092877388,-0.8180843591690063
},
{
0.1936541050672531,-0.0606071762740612,0.11273554712533951,-0.29547786712646484,0.16666005551815033,0.08986029773950577,0.08569417893886566,-0.18067875504493713,-0.0025209076702594757,0.02960631437599659,0.21725976467132568,0.05325013026595116,-0.29929354786872864,0.11716015636920929,-0.2095157504081726,0.002371075563132763,-0.05491018295288086,0.05618307366967201,0.08126350492238998,-0.08833788335323334,-0.0242534801363945,-0.09636581689119339,0.1030108854174614,-0.05828521400690079,-0.13670291006565094,0.05812961980700493,-0.22023846209049225,0.13458934426307678,-0.14256726205348969,-0.08942927420139313,-0.03424845635890961,-0.2503156363964081
},
{
-0.10584235936403275,-0.6321731805801392,-0.04592934250831604,-0.4637868404388428,0.07042240351438522,-0.5645415186882019,-0.10420931875705719,-0.0063986885361373425,0.07429921627044678,0.033581990748643875,0.07473176717758179,-0.14775291085243225,0.05067380890250206,-0.16042926907539368,0.21545585989952087,-0.1903948336839676,-0.2966625690460205,0.5399593710899353,0.30155450105667114,0.11847101897001266,0.16084301471710205,-0.18219472467899323,0.32440924644470215,0.056455567479133606,-0.1981753408908844,0.2660244405269623,-0.5617423057556152,-0.6825932860374451,0.052704717963933945,-0.07912735641002655,-0.8365244269371033,0.10535715520381927
},
{
-0.328022301197052,-0.17295923829078674,-0.012490314431488514,-0.11111865937709808,0.6080388426780701,-0.10941915214061737,-0.22694335877895355,-0.7026283740997314,-0.002997920149937272,0.6758408546447754,0.11467695236206055,0.21542207896709442,-0.5031515955924988,0.5855080485343933,-0.6098887920379639,-0.3721073269844055,1.2107917070388794,0.8593733310699463,-0.022058136761188507,-0.2282586246728897,-1.110594391822815,-0.16070838272571564,0.09763944149017334,-0.05958916246891022,-0.14514899253845215,-0.7419168949127197,0.36708399653434753,-0.115320585668087,-0.2859762907028198,-0.3218041956424713,-0.3488016724586487,0.23953552544116974
},
{
-0.3711412847042084,-0.23011837899684906,-0.39400604367256165,-0.464534729719162,0.9702895879745483,0.11669617146253586,-0.30462273955345154,-0.6065720915794373,0.1529965102672577,0.4026000499725342,0.044762372970581055,-0.07115303725004196,-0.08266016840934753,0.6665133833885193,-1.2844717502593994,-0.30909788608551025,-0.4666247069835663,-0.38907262682914734,0.272290974855423,-0.22847771644592285,-0.6915760636329651,-0.4845460057258606,-0.15631529688835144,-0.3138461709022522,-0.7281772494316101,0.7154337763786316,0.016745474189519882,0.3216123580932617,0.046578507870435715,-0.39280247688293457,-0.3555564284324646,0.1208040863275528
},
{
0.06908301264047623,0.24465812742710114,-0.11037646979093552,-0.11270775645971298,-0.8102352023124695,0.15987686812877655,-0.26084402203559875,-0.0687800943851471,0.12175681442022324,-0.405195415019989,-0.1830466389656067,0.2304675579071045,-0.3609282970428467,0.1743755042552948,-0.38036319613456726,-0.25788092613220215,-0.695768415927887,-0.5260143876075745,-0.615443229675293,-0.12876532971858978,-0.19288934767246246,0.07481257617473602,-0.4131126403808594,0.1721866875886917,-0.35805097222328186,-0.3980589210987091,0.037340693175792694,0.33037611842155457,-0.18786859512329102,0.1772945523262024,0.34203702211380005,-0.2095511257648468
},
{
-0.3176136612892151,-0.4006551504135132,-0.02983102947473526,-0.35538703203201294,0.6122209429740906,0.1546686887741089,-0.40478816628456116,-0.8739424347877502,-0.008541274815797806,0.028678935021162033,-0.06785434484481812,0.1270192265510559,-0.10856526345014572,0.5256662964820862,-0.5252165198326111,-0.540338397026062,1.0017420053482056,0.9320803284645081,-0.1030593290925026,-0.24792508780956268,-1.1571093797683716,-0.5803305506706238,-0.2357148379087448,0.04236404597759247,0.15375222265720367,-2.152662992477417,-0.05619516968727112,0.0799785703420639,-0.37977397441864014,-0.3306777775287628,-0.44736790657043457,0.1067933514714241
},
{
-0.2400542050600052,0.18273179233074188,-0.0425194576382637,-0.05283327400684357,-0.13805338740348816,-0.17969562113285065,-0.08565649390220642,-0.06785208731889725,-0.05342165008187294,0.18919534981250763,0.16682976484298706,-0.21826684474945068,-0.21949009597301483,0.13004298508167267,0.05234145745635033,-0.0845610573887825,0.2226334661245346,0.012316616252064705,-0.018586788326501846,-0.3468626141548157,-0.000232696533203125,-0.027770759537816048,0.14498917758464813,-0.08508101850748062,-0.1514853835105896,-0.24916011095046997,0.08949536085128784,0.11405148357152939,-0.18385544419288635,-0.16204233467578888,0.11806662380695343,-0.08916864544153214
},
{
-0.21435607969760895,0.13989895582199097,-0.11570922285318375,-0.23194889724254608,-0.21491722762584686,0.12367166578769684,0.0296094361692667,-0.127288818359375,-0.098481684923172,-0.053523335605859756,-0.013985157012939453,0.07983827590942383,0.1201372742652893,-0.16003969311714172,0.1486450433731079,-0.1237817257642746,-0.13153564929962158,0.09292006492614746,0.224439799785614,-0.2641051113605499,-0.12934723496437073,0.1193336695432663,-0.12013988941907883,-0.20580394566059113,-0.07716143131256104,0.21186326444149017,0.1419815719127655,-0.03836306557059288,-0.015342649072408676,-0.24400240182876587,-0.0955284908413887,0.001023977529257536
},
{
-0.2007860243320465,-0.008888181298971176,0.23413775861263275,0.4769919514656067,-0.7275773882865906,0.10274552553892136,0.11571434140205383,-0.5007148385047913,-0.09206294268369675,-0.2003517746925354,-0.22686618566513062,0.2577853500843048,-0.18826249241828918,0.1731327921152115,-0.4690874218940735,0.15454329550266266,-0.16341380774974823,-0.4572867155075073,-0.32084357738494873,0.08152320981025696,0.01870132051408291,0.4858437776565552,0.36828961968421936,0.07234897464513779,-0.3865291178226471,0.7389281988143921,-0.03520726412534714,-0.10824298113584518,0.20343057811260223,-0.1709727793931961,-0.34176644682884216,0.09424957633018494
},
{
0.47030147910118103,0.39851483702659607,0.24972383677959442,0.231780543923378,-1.032407522201538,0.03612132743000984,0.22703157365322113,0.24995394051074982,0.026796091347932816,-0.9030961990356445,0.04106032848358154,-0.09600389003753662,-0.2096291184425354,-0.3143830895423889,-0.03965161368250847,0.10815004259347916,-0.3530389666557312,-0.6887825727462769,-0.0953037440776825,0.21691790223121643,0.4675186276435852,0.5042542815208435,0.24410387873649597,0.32858505845069885,0.1963692605495453,0.7767909169197083,-0.06906522810459137,0.09337937086820602,0.47575196623802185,0.14666734635829926,0.7257433533668518,-0.011746220290660858
},
{
-0.5664297342300415,-0.6019299626350403,-0.051179271191358566,0.23038212954998016,-0.5296506881713867,0.013592599891126156,-0.11588694155216217,-0.8066005110740662,-0.18530291318893433,-0.3651414215564728,0.12005823850631714,0.22627857327461243,-0.4828982353210449,-0.07676993310451508,-0.27001920342445374,-0.25840863585472107,0.24118410050868988,0.3679085373878479,-0.1927664577960968,-0.14046676456928253,-0.9096125960350037,-0.17551478743553162,0.22446206212043762,0.10138434171676636,-0.2529227137565613,-1.529329538345337,0.2828280031681061,-0.03727854788303375,0.16053980588912964,0.02392251417040825,-0.7410018444061279,0.17878690361976624
},
{
0.3423187732696533,-0.09753697365522385,-0.17299364507198334,0.003210859838873148,-0.6039595007896423,0.22946634888648987,0.365732878446579,0.2695471942424774,0.30921638011932373,-0.46136581897735596,0.05691385269165039,0.08555782586336136,0.19320333003997803,-0.4851609766483307,-1.0266554355621338,0.43557679653167725,-0.09998857229948044,-0.3537680506706238,-1.3286502361297607,0.10084515810012817,-0.026321381330490112,0.5624076128005981,-0.8198115229606628,-0.35104313492774963,-0.5263716578483582,0.6245889663696289,0.3106921315193176,-0.08154458552598953,0.4194984436035156,-0.2232920527458191,0.3844527304172516,-1.2387950420379639
},
{
0.5080718994140625,0.2666141986846924,-0.08909592777490616,0.26927152276039124,0.010673069395124912,-0.6573986411094666,0.22251112759113312,0.6214486956596375,-0.04781191051006317,-0.27310508489608765,-0.15750938653945923,-0.004872846882790327,0.40911856293678284,0.2836107909679413,0.3017951548099518,-0.06331726908683777,-1.0573070049285889,-1.2310984134674072,0.17409853637218475,0.28178074955940247,0.2815106511116028,0.21877333521842957,-0.05829700082540512,0.024944623932242393,0.39236611127853394,-0.750983715057373,-0.16142962872982025,-0.040059879422187805,-0.10109417140483856,-0.046254713088274,0.9458279609680176,0.3205536901950836
},
{
0.13374045491218567,0.10061132162809372,-0.018305301666259766,-0.009959936141967773,-0.09482473134994507,0.052950918674468994,-0.226507768034935,0.22486728429794312,-0.12082084268331528,-0.06970866769552231,0.21152108907699585,-0.20461362600326538,-0.25983279943466187,-0.22282294929027557,-0.2620219886302948,0.09896830469369888,-0.04932105541229248,-0.07753908634185791,0.17813259363174438,0.17260104417800903,-0.04599360376596451,-0.13169167935848236,-0.12054192274808884,-0.024673864245414734,-0.0026362896896898746,-0.12926381826400757,-0.00453341007232666,-0.02529357746243477,-0.22416697442531586,-0.16354168951511383,-0.1493983268737793,-0.1715134084224701
},
{
0.07822597771883011,0.4711569845676422,0.03782317414879799,1.1866064071655273,-0.15670602023601532,0.46401169896125793,-0.2811279296875,-0.097816601395607,-0.19323565065860748,0.17269781231880188,-0.11959707736968994,0.08096116036176682,0.19426603615283966,0.2744556963443756,-0.12000472098588943,-1.076311469078064,-0.9094391465187073,-1.086933970451355,-0.0598667748272419,0.11008932441473007,-0.02465321309864521,0.2561251223087311,0.11241529881954193,-0.18098053336143494,0.47098395228385925,1.2002984285354614,0.7601130604743958,0.20717106759548187,-0.47345513105392456,0.04402417317032814,0.4497511684894562,-0.07397472113370895
},
{
-0.299500048160553,-0.06208125501871109,-0.018776768818497658,0.05050895735621452,-0.24964578449726105,-0.2620040774345398,-0.02419617772102356,-0.15834186971187592,0.2079206109046936,0.01238338928669691,0.20916390419006348,0.21129147708415985,-0.062052588909864426,-0.09319458156824112,-0.009231881238520145,0.027698727324604988,-0.11417269706726074,-0.40092456340789795,-0.2623191475868225,-0.16452844440937042,0.03336408734321594,0.0926920548081398,-0.08463697880506516,0.11955929547548294,-0.0010683966102078557,0.3680386543273926,0.029865384101867676,0.2351875901222229,0.055394746363162994,-0.3283918499946594,0.1582128405570984,-0.0717887133359909
},
{
-0.1639413684606552,0.1562870293855667,0.2086721956729889,-0.21284256875514984,-0.0619538389146328,0.1103333905339241,0.06056556850671768,0.09071013331413269,0.12407340854406357,-0.15959079563617706,-0.23811304569244385,0.13450312614440918,0.12825652956962585,-0.19040484726428986,-0.241659477353096,-0.0010219928808510303,-0.03858464956283569,-0.19201065599918365,0.1683322787284851,-0.17760005593299866,-0.06284995377063751,0.05816886946558952,-0.20821790397167206,0.04537734016776085,-0.15732429921627045,-0.17729610204696655,-0.00575437443330884,-0.06103852763772011,-0.2217811942100525,0.08394407480955124,-0.23010775446891785,-0.09348389506340027
},
{
0.07400389760732651,-0.2229202389717102,0.11061251163482666,-0.31850239634513855,0.05249027907848358,0.03902299329638481,-0.15663021802902222,0.04167121648788452,0.16126547753810883,-0.21491718292236328,-0.23998689651489258,-0.08348715305328369,-0.2505125105381012,0.11391232162714005,-0.07542413473129272,-0.17833977937698364,-0.17838266491889954,-0.11514811217784882,-0.016228578984737396,-0.07402676343917847,-0.279904305934906,0.13482698798179626,-0.27819257974624634,-0.04571438208222389,-0.3205595016479492,0.15379197895526886,0.1882718801498413,-0.10167199373245239,-0.052678368985652924,-0.03338603302836418,-0.3085893392562866,0.16297060251235962
},
{
0.17504538595676422,-0.704323410987854,-0.09296363592147827,-0.2574027180671692,0.2864997386932373,-0.9567478895187378,0.24012865126132965,0.16648849844932556,0.012114387936890125,-2.6363465785980225,0.04273700714111328,-0.14815115928649902,0.14747652411460876,-0.4587790369987488,0.4056878089904785,0.19399867951869965,-0.40983420610427856,-0.5420477986335754,-0.047933850437402725,0.3757215440273285,0.5356022119522095,0.07320515811443329,-0.03609524667263031,0.0693703442811966,-0.363190621137619,-0.3045506775379181,0.005385982804000378,-0.7429433465003967,0.4411125183105469,-0.06301148235797882,-0.3226979076862335,-0.11820042878389359
},
{
0.029890835285186768,-0.10624927282333374,0.05160360783338547,-0.024806031957268715,-0.23403006792068481,0.046062931418418884,0.10768469423055649,0.08210837841033936,-0.2703290283679962,0.0175551176071167,-0.0677410364151001,0.10455513000488281,-0.20296615362167358,-0.07104787230491638,-0.211960107088089,-0.020220965147018433,-0.0610162615776062,0.09247735142707825,0.10521429777145386,-0.18563030660152435,0.13004378974437714,-0.06553041934967041,0.04730648547410965,0.15660496056079865,0.10454615205526352,-0.18563956022262573,0.2017526775598526,-0.13939502835273743,0.15660899877548218,-0.2668178081512451,-0.1892266869544983,-0.11915560811758041
},
{
-0.4442954659461975,-0.6640288233757019,0.08890599757432938,-0.1479586660861969,0.44442325830459595,0.046603575348854065,-0.15197299420833588,-0.6978605389595032,0.12462013959884644,0.021564023569226265,0.062094807624816895,-0.07124710083007812,-0.5187533497810364,-0.4445762634277344,-0.11899027973413467,-0.11258677393198013,-0.2448647916316986,-0.2462681084871292,0.1623835414648056,-0.2984899878501892,-0.477661669254303,0.4178447723388672,0.06452078372240067,-0.79326331615448,-0.28805533051490784,1.1662265062332153,-0.6031624674797058,-0.26791802048683167,-0.12672917544841766,-1.0703208446502686,-0.7422324419021606,-0.23436562716960907
}
};



